#ifndef WEIGHTS_H
#define WEIGHTS_H

// Neural Network Weights exported from PyTorch
// Architecture: 9 -> 32 -> 32 -> 5

const float fc1_weight[] = {
    -0.109412f,     -0.309980f,     0.099332f,     -0.099556f,     0.119711f,     0.280506f,     -0.302910f,     -0.004662f, 
    -0.072793f,     -0.168658f,     -0.243675f,     0.087905f,     0.131220f,     -0.000389f,     0.003033f,     -0.166133f, 
    0.172939f,     0.133505f,     0.323579f,     0.243929f,     -0.091494f,     0.031898f,     0.057907f,     -0.167613f, 
    0.332010f,     -0.028602f,     -0.313211f,     -0.252932f,     -0.195849f,     0.272563f,     -0.187672f,     0.117361f, 
    -0.103576f,     0.047216f,     0.255630f,     -0.257851f,     0.323308f,     0.102617f,     -0.296903f,     0.058935f, 
    -0.011741f,     -0.280449f,     0.296942f,     0.257470f,     -0.286876f,     -0.193734f,     0.002534f,     -0.231302f, 
    0.259962f,     -0.228872f,     0.035330f,     0.245375f,     0.054685f,     -0.160843f,     0.292289f,     0.295685f, 
    0.145725f,     0.164089f,     0.085609f,     0.018828f,     -0.061880f,     -0.153696f,     -0.303563f,     -0.152620f, 
    -0.211411f,     -0.011278f,     -0.243487f,     0.209499f,     0.247747f,     -0.226099f,     0.212042f,     0.082504f, 
    -0.200068f,     0.051139f,     0.180007f,     0.150571f,     -0.331298f,     -0.325771f,     0.241371f,     0.135912f, 
    -0.332171f,     0.270122f,     0.199403f,     -0.041342f,     -0.103499f,     0.235827f,     0.247523f,     -0.108842f, 
    0.060206f,     -0.116045f,     0.123715f,     0.121798f,     -0.155477f,     -0.237959f,     0.061442f,     -0.313731f, 
    -0.145701f,     0.230394f,     -0.175728f,     -0.029908f,     0.028650f,     -0.312613f,     -0.164234f,     -0.330497f, 
    -0.106271f,     -0.048535f,     0.091564f,     -0.186010f,     -0.136058f,     -0.235828f,     -0.262664f,     -0.086948f, 
    -0.250507f,     0.026579f,     0.320360f,     -0.072347f,     -0.299102f,     -0.197744f,     0.200318f,     -0.234190f, 
    -0.043527f,     0.125252f,     -0.174044f,     0.127128f,     0.138960f,     0.212394f,     0.104209f,     -0.064173f, 
    0.322445f,     0.304583f,     0.055512f,     -0.119767f,     -0.158362f,     -0.225700f,     -0.130231f,     -0.124229f, 
    -0.324916f,     0.206684f,     0.033852f,     0.163144f,     -0.046696f,     -0.070495f,     -0.296128f,     0.043585f, 
    0.134588f,     -0.213679f,     -0.103457f,     -0.224481f,     -0.176644f,     0.180196f,     0.100638f,     0.151155f, 
    -0.268741f,     0.186447f,     0.245215f,     0.080311f,     -0.273765f,     -0.142027f,     -0.214542f,     -0.039798f, 
    0.110609f,     -0.213901f,     -0.162788f,     -0.132739f,     -0.220703f,     -0.138855f,     -0.122726f,     0.304899f, 
    0.100449f,     -0.003417f,     0.100469f,     0.082137f,     -0.167093f,     -0.144759f,     -0.022355f,     -0.023785f, 
    -0.271982f,     0.054352f,     0.024118f,     -0.036009f,     -0.304322f,     -0.009718f,     -0.080586f,     0.298826f, 
    -0.008676f,     -0.314986f,     -0.059556f,     0.006786f,     0.117149f,     0.093100f,     0.265918f,     -0.324822f, 
    -0.000133f,     -0.105945f,     0.294133f,     -0.285749f,     -0.288762f,     0.300031f,     0.316389f,     -0.226256f, 
    0.268339f,     -0.272035f,     -0.060661f,     0.189091f,     0.136348f,     0.089112f,     -0.273213f,     -0.129743f, 
    -0.213127f,     0.204232f,     -0.034248f,     -0.091342f,     0.034186f,     -0.295818f,     -0.290772f,     0.023378f, 
    -0.082240f,     0.216744f,     -0.011687f,     -0.223736f,     0.027548f,     -0.244828f,     0.328816f,     -0.276017f, 
    -0.075768f,     0.086690f,     0.182755f,     -0.161515f,     -0.098057f,     -0.205170f,     -0.056251f,     0.329421f, 
    0.304959f,     -0.139643f,     0.160228f,     -0.288167f,     0.031523f,     -0.255835f,     0.126485f,     -0.110411f, 
    -0.194793f,     0.176520f,     -0.296636f,     0.053120f,     -0.095750f,     -0.151698f,     0.237999f,     0.055211f, 
    -0.117503f,     -0.181429f,     -0.056241f,     -0.298943f,     -0.277849f,     0.088699f,     0.059383f,     -0.305760f, 
    -0.260420f,     0.147694f,     -0.138676f,     0.095475f,     -0.130615f,     -0.157082f,     0.170068f,     0.140625f, 
    0.082436f,     -0.190260f,     0.069205f,     -0.157419f,     0.005473f,     -0.193975f,     0.210345f,     -0.015937f, 
    -0.056816f,     -0.055756f,     0.326695f,     0.162223f,     -0.316849f,     -0.260696f,     -0.061290f,     0.104499f, 
    0.124887f,     -0.132084f,     -0.257557f,     0.070888f,     0.173494f,     0.202876f,     0.147727f,     0.279784f

};

const int fc1_weight_len = 288;

const float fc1_bias[] = {
    -0.087990f,     -0.238119f,     -0.128808f,     -0.258677f,     0.141334f,     -0.266027f,     -0.014404f,     0.064078f, 
    -0.295385f,     0.291313f,     0.029892f,     0.259232f,     0.229961f,     0.179277f,     0.084551f,     0.217745f, 
    -0.060370f,     -0.209308f,     0.007409f,     0.286046f,     0.302939f,     0.104512f,     0.102981f,     -0.302276f, 
    -0.229252f,     -0.275480f,     0.330388f,     -0.304705f,     -0.207061f,     -0.072789f,     0.081132f,     -0.172025f

};

const int fc1_bias_len = 32;

const float fc2_weight[] = {
    0.072539f,     -0.027435f,     0.120171f,     -0.115555f,     -0.032557f,     -0.142548f,     0.120494f,     -0.001867f, 
    0.130935f,     0.133966f,     -0.067822f,     -0.084205f,     -0.047264f,     -0.005372f,     0.125187f,     -0.164426f, 
    -0.129469f,     0.153390f,     -0.164794f,     0.166067f,     0.110735f,     0.120269f,     -0.053881f,     0.038211f, 
    -0.118505f,     -0.071397f,     0.012048f,     0.047765f,     -0.065778f,     -0.148474f,     0.107479f,     0.117588f, 
    -0.025502f,     0.054810f,     -0.101774f,     0.095426f,     -0.036979f,     -0.116602f,     -0.002490f,     -0.159311f, 
    0.022562f,     -0.025112f,     -0.026159f,     -0.076876f,     -0.080547f,     -0.093122f,     -0.105828f,     -0.090952f, 
    -0.021210f,     -0.140019f,     0.106716f,     -0.104909f,     0.052932f,     0.148350f,     0.155294f,     -0.109963f, 
    0.084633f,     0.003769f,     -0.011397f,     -0.003244f,     -0.127154f,     -0.155718f,     0.080767f,     0.044928f, 
    0.095445f,     -0.062876f,     -0.037091f,     -0.176496f,     0.129081f,     -0.064217f,     0.153323f,     0.134883f, 
    -0.029343f,     0.014536f,     0.070000f,     0.012962f,     -0.084252f,     -0.175236f,     -0.054853f,     -0.128226f, 
    -0.069795f,     -0.095811f,     0.164891f,     0.025444f,     0.011903f,     -0.116857f,     -0.122558f,     -0.026862f, 
    0.100384f,     -0.099071f,     -0.061582f,     -0.021685f,     0.002974f,     0.001537f,     0.120239f,     -0.083886f, 
    -0.002575f,     -0.047794f,     0.010132f,     -0.030898f,     0.079947f,     0.028475f,     0.095621f,     -0.094801f, 
    -0.145384f,     -0.077643f,     0.073198f,     0.054668f,     -0.027859f,     0.081393f,     0.124683f,     -0.166972f, 
    -0.165464f,     -0.045834f,     -0.145342f,     0.152774f,     -0.140087f,     -0.015928f,     0.001196f,     -0.130922f, 
    -0.005150f,     -0.090634f,     -0.024133f,     -0.124123f,     -0.080256f,     0.106386f,     -0.000803f,     -0.144176f, 
    0.109809f,     0.001324f,     -0.128838f,     -0.090832f,     0.085391f,     -0.116796f,     0.026106f,     -0.119603f, 
    -0.060187f,     -0.067375f,     -0.067092f,     -0.075316f,     0.060722f,     0.070805f,     0.150982f,     -0.174742f, 
    -0.168473f,     -0.126290f,     -0.081660f,     -0.112544f,     0.060030f,     -0.086164f,     -0.056228f,     -0.011606f, 
    0.099778f,     0.107920f,     -0.053313f,     -0.137980f,     0.063641f,     0.117478f,     0.071590f,     -0.015435f, 
    -0.066490f,     0.163344f,     0.157907f,     -0.015103f,     0.123163f,     -0.156791f,     0.107007f,     -0.041431f, 
    -0.123890f,     -0.041785f,     0.080324f,     0.149673f,     0.061581f,     0.171055f,     0.064719f,     -0.136104f, 
    -0.128028f,     0.120158f,     0.036987f,     0.126974f,     0.007925f,     0.046797f,     -0.068866f,     0.056272f, 
    0.138091f,     0.140041f,     -0.029349f,     0.140154f,     -0.136681f,     0.109389f,     0.094022f,     0.151688f, 
    -0.044359f,     0.143449f,     0.025099f,     0.064711f,     0.142226f,     0.059950f,     0.090455f,     0.171789f, 
    0.144008f,     -0.062663f,     -0.102148f,     -0.175288f,     0.170452f,     -0.168297f,     0.055101f,     0.120602f, 
    -0.154652f,     0.044953f,     -0.162653f,     0.103324f,     -0.113410f,     0.166760f,     0.094756f,     0.127613f, 
    -0.078435f,     0.119836f,     -0.156395f,     -0.029968f,     -0.049615f,     -0.095219f,     -0.140283f,     -0.024502f, 
    0.032470f,     0.028927f,     -0.102280f,     0.115533f,     0.095888f,     0.055831f,     -0.008654f,     0.028279f, 
    -0.089041f,     -0.094843f,     -0.132827f,     -0.135555f,     0.033305f,     0.161177f,     0.057805f,     0.061464f, 
    -0.084007f,     -0.145726f,     -0.005329f,     0.119875f,     0.094737f,     -0.161841f,     0.161150f,     0.106418f, 
    0.027014f,     0.030464f,     0.014061f,     0.120089f,     0.135220f,     0.022696f,     0.006631f,     0.115624f, 
    -0.163943f,     -0.096884f,     -0.117356f,     -0.135293f,     0.142877f,     -0.063831f,     -0.159115f,     -0.130913f, 
    -0.129094f,     0.141294f,     -0.026984f,     -0.105040f,     0.052006f,     0.041950f,     -0.100932f,     -0.082251f, 
    -0.008595f,     -0.143187f,     0.171725f,     0.116940f,     -0.067896f,     0.008883f,     0.040198f,     0.060526f, 
    0.042405f,     -0.147966f,     0.053781f,     0.065223f,     0.017097f,     -0.171404f,     0.093727f,     0.045797f, 
    0.106977f,     -0.106079f,     -0.124598f,     0.083208f,     0.034915f,     -0.142711f,     -0.123834f,     0.020926f, 
    -0.092114f,     0.108923f,     -0.115214f,     -0.089908f,     0.058764f,     0.049043f,     -0.091560f,     -0.065216f, 
    0.062870f,     0.010167f,     0.074169f,     0.029905f,     0.147710f,     0.139420f,     0.146284f,     0.145500f, 
    -0.121417f,     0.146521f,     -0.105765f,     0.133744f,     -0.152354f,     -0.053559f,     0.129402f,     -0.129301f, 
    -0.028896f,     0.097366f,     -0.158788f,     0.071146f,     0.078046f,     -0.133355f,     -0.148345f,     -0.127848f, 
    -0.061826f,     0.111394f,     0.028637f,     0.087649f,     0.095531f,     0.121368f,     -0.131622f,     -0.174008f, 
    -0.111494f,     -0.031386f,     -0.081873f,     0.166123f,     -0.024433f,     -0.089175f,     -0.148719f,     0.096897f, 
    0.158456f,     -0.023040f,     -0.026470f,     0.107137f,     0.105696f,     0.128585f,     0.061164f,     -0.044853f, 
    0.033490f,     0.051660f,     -0.060215f,     0.110124f,     -0.082818f,     0.093295f,     -0.035525f,     0.157423f, 
    0.163573f,     -0.040912f,     -0.112098f,     -0.085832f,     -0.019070f,     0.019737f,     0.051481f,     0.111063f, 
    -0.085221f,     -0.134498f,     -0.087795f,     0.040001f,     -0.053606f,     -0.146949f,     0.120197f,     -0.079715f, 
    -0.017352f,     0.151275f,     0.099734f,     -0.119188f,     0.141758f,     -0.090090f,     -0.153160f,     0.175927f, 
    0.139043f,     0.123118f,     0.156799f,     0.105458f,     0.139475f,     -0.022806f,     -0.089866f,     0.136824f, 
    -0.133512f,     0.152225f,     0.139587f,     -0.071660f,     -0.014515f,     0.113712f,     0.099538f,     -0.046715f, 
    0.128573f,     -0.104068f,     0.069695f,     0.128154f,     -0.041063f,     0.142479f,     0.024290f,     0.149821f, 
    0.138685f,     -0.174486f,     -0.001354f,     -0.147686f,     -0.153590f,     -0.154427f,     -0.027253f,     -0.006438f, 
    0.080820f,     -0.020208f,     -0.142279f,     -0.060211f,     -0.052459f,     -0.170320f,     -0.039065f,     0.045342f, 
    0.072921f,     0.117692f,     0.142780f,     0.074958f,     -0.159161f,     -0.068522f,     0.086665f,     -0.040245f, 
    -0.104939f,     -0.155593f,     -0.170534f,     -0.014743f,     -0.119559f,     -0.175737f,     -0.103738f,     0.111539f, 
    -0.165918f,     0.076701f,     0.000986f,     -0.139243f,     0.171048f,     -0.152594f,     -0.127895f,     0.146607f, 
    0.150641f,     -0.008597f,     0.108529f,     -0.000151f,     -0.136538f,     0.087528f,     0.083968f,     -0.157953f, 
    0.059603f,     0.064649f,     -0.061378f,     -0.037581f,     0.025790f,     -0.165452f,     0.010917f,     -0.175848f, 
    -0.160374f,     -0.113993f,     -0.139403f,     -0.014754f,     -0.098028f,     0.155358f,     -0.016472f,     -0.024436f, 
    -0.051224f,     -0.125210f,     0.151026f,     -0.029928f,     0.098913f,     -0.091640f,     0.022617f,     0.109238f, 
    -0.048086f,     -0.053370f,     -0.113729f,     0.021359f,     -0.125545f,     -0.054255f,     -0.046766f,     -0.036941f, 
    0.109040f,     -0.002325f,     0.047707f,     -0.012844f,     -0.061700f,     0.165364f,     -0.117089f,     0.098971f, 
    -0.121172f,     0.127776f,     -0.089856f,     0.109772f,     0.018220f,     0.086454f,     0.028458f,     0.079836f, 
    -0.138751f,     0.073828f,     0.019481f,     0.168012f,     -0.024875f,     0.055913f,     0.090625f,     0.113414f, 
    0.043900f,     0.063101f,     -0.105283f,     -0.031350f,     0.154347f,     0.062254f,     0.155585f,     0.026539f, 
    -0.029455f,     0.028544f,     -0.109628f,     -0.016625f,     -0.044634f,     0.098546f,     0.167069f,     -0.136490f, 
    -0.127833f,     0.147472f,     0.021388f,     0.144478f,     0.083535f,     0.055944f,     0.141806f,     -0.171839f, 
    -0.070569f,     -0.106253f,     0.150672f,     0.090887f,     0.020416f,     -0.157814f,     0.026327f,     -0.037960f, 
    0.068593f,     -0.092454f,     -0.056995f,     -0.067645f,     0.107459f,     0.033473f,     -0.138578f,     0.010490f, 
    0.105528f,     0.138899f,     0.039182f,     0.167333f,     -0.041274f,     0.001698f,     0.056765f,     0.051781f, 
    0.066112f,     0.090066f,     -0.001773f,     -0.170417f,     0.030922f,     0.074577f,     -0.116774f,     0.000897f, 
    0.019777f,     0.018986f,     -0.113436f,     -0.030930f,     -0.145924f,     -0.056732f,     0.163986f,     0.056116f, 
    0.001167f,     0.153367f,     0.011457f,     0.120031f,     0.056802f,     0.159374f,     -0.014666f,     -0.057950f, 
    -0.045431f,     0.072344f,     0.100630f,     0.077296f,     0.161972f,     0.047494f,     0.014492f,     -0.114148f, 
    0.022597f,     -0.117849f,     0.045708f,     0.060185f,     0.011951f,     -0.007468f,     0.062456f,     0.141955f, 
    0.105733f,     0.055133f,     -0.002696f,     -0.089393f,     -0.013745f,     -0.119913f,     -0.015891f,     -0.054611f, 
    0.055591f,     -0.107915f,     -0.031932f,     0.008374f,     0.113723f,     0.110904f,     -0.022471f,     -0.104494f, 
    -0.144574f,     -0.058785f,     0.087039f,     -0.063101f,     0.079576f,     -0.107482f,     -0.171399f,     0.025674f, 
    -0.056965f,     0.071762f,     -0.004899f,     0.005173f,     0.119613f,     -0.168904f,     0.029457f,     -0.023629f, 
    -0.019435f,     -0.094100f,     -0.148209f,     0.003958f,     0.159047f,     -0.082097f,     -0.117939f,     -0.171087f, 
    0.169263f,     0.099068f,     -0.003325f,     -0.122059f,     0.118370f,     0.070881f,     0.069118f,     -0.098857f, 
    -0.037064f,     0.125851f,     0.055139f,     -0.165246f,     -0.169119f,     -0.021854f,     0.038315f,     0.057663f, 
    0.024557f,     -0.075403f,     -0.089798f,     0.160488f,     0.169862f,     0.016483f,     0.013092f,     -0.010734f, 
    0.041916f,     0.092255f,     0.101060f,     -0.061245f,     0.151851f,     -0.135658f,     0.065841f,     0.086593f, 
    0.145122f,     -0.111834f,     -0.065838f,     0.057770f,     -0.048424f,     0.075689f,     -0.129512f,     -0.050115f, 
    0.081785f,     -0.071245f,     0.067736f,     -0.146538f,     -0.126561f,     0.159729f,     -0.109747f,     0.053718f, 
    0.083804f,     -0.070024f,     -0.125949f,     0.164348f,     0.072562f,     -0.165741f,     -0.007639f,     -0.059522f, 
    0.151686f,     0.113307f,     -0.109076f,     -0.130160f,     0.135162f,     -0.166308f,     0.144872f,     -0.107215f, 
    0.072296f,     -0.135465f,     0.149061f,     0.132235f,     -0.061852f,     0.038439f,     -0.021126f,     0.139100f, 
    -0.043868f,     0.121064f,     -0.078390f,     -0.139284f,     -0.014783f,     -0.144183f,     -0.008417f,     0.176348f, 
    -0.014894f,     0.106758f,     -0.035944f,     -0.004892f,     -0.080554f,     -0.126519f,     -0.046560f,     0.125563f, 
    -0.005212f,     0.082778f,     -0.001408f,     0.027881f,     0.150380f,     0.072101f,     -0.116539f,     -0.129714f, 
    -0.120837f,     0.111067f,     0.126650f,     0.027569f,     0.061539f,     0.067248f,     -0.119844f,     0.108439f, 
    0.088224f,     -0.137751f,     -0.077216f,     0.060812f,     -0.042056f,     0.012276f,     -0.106976f,     -0.031689f, 
    0.020223f,     0.117579f,     0.077360f,     0.144829f,     0.160893f,     -0.146191f,     -0.006566f,     0.170050f, 
    -0.112392f,     -0.146470f,     -0.026346f,     0.043467f,     0.048692f,     0.148139f,     -0.068575f,     -0.016345f, 
    -0.020070f,     0.073446f,     0.080912f,     0.004610f,     0.063339f,     0.101605f,     0.008900f,     -0.063735f, 
    -0.047992f,     0.084964f,     0.153804f,     0.155430f,     -0.027274f,     -0.104253f,     -0.076629f,     0.045183f, 
    0.056941f,     -0.101210f,     -0.170966f,     -0.070198f,     0.164838f,     -0.157370f,     0.059667f,     0.132480f, 
    -0.069543f,     -0.024069f,     0.159654f,     -0.044722f,     0.141093f,     -0.010209f,     -0.140904f,     -0.041420f, 
    0.168985f,     0.041060f,     0.035301f,     -0.046127f,     0.101265f,     0.110224f,     -0.151240f,     0.030831f, 
    -0.106712f,     0.137380f,     0.019677f,     0.145091f,     0.137818f,     -0.054834f,     -0.022154f,     0.112341f, 
    -0.117757f,     -0.172535f,     -0.035927f,     -0.173443f,     0.034580f,     0.004462f,     0.157936f,     0.093689f, 
    -0.055935f,     -0.142753f,     0.112051f,     0.038816f,     -0.064445f,     0.005650f,     -0.093133f,     0.020664f, 
    -0.099140f,     -0.113714f,     0.135558f,     0.129381f,     0.163403f,     -0.049591f,     -0.008639f,     0.165603f, 
    -0.096410f,     0.170084f,     0.125732f,     0.156755f,     -0.030365f,     -0.164663f,     0.134098f,     -0.123468f, 
    0.138161f,     0.145456f,     0.163895f,     0.017809f,     0.028131f,     -0.139178f,     0.164608f,     0.018181f, 
    -0.165645f,     0.109885f,     0.082371f,     0.127868f,     0.010359f,     0.031465f,     -0.133330f,     0.040040f, 
    -0.085703f,     -0.040851f,     0.029021f,     0.083288f,     0.071365f,     -0.034077f,     0.010016f,     -0.047696f, 
    0.027522f,     -0.112269f,     0.000637f,     0.147480f,     -0.138328f,     0.108667f,     -0.038252f,     -0.056919f, 
    -0.031403f,     0.059980f,     0.159152f,     0.008072f,     -0.064484f,     0.159639f,     0.114527f,     -0.070012f, 
    -0.152540f,     -0.160728f,     0.089014f,     0.063862f,     -0.029257f,     0.077451f,     0.134533f,     0.035071f, 
    -0.087680f,     0.051163f,     -0.030779f,     0.129003f,     0.117540f,     -0.120448f,     -0.057689f,     0.173219f, 
    -0.026399f,     0.131558f,     0.055130f,     -0.058262f,     -0.052627f,     -0.075282f,     0.157218f,     -0.171129f, 
    -0.099975f,     0.117108f,     -0.116349f,     -0.155128f,     -0.092770f,     -0.165773f,     0.124345f,     -0.019055f, 
    -0.152790f,     -0.114261f,     -0.162524f,     0.119090f,     -0.147077f,     0.035314f,     -0.159466f,     0.034378f, 
    -0.137468f,     -0.089173f,     0.039925f,     0.163132f,     0.021598f,     -0.146427f,     -0.031989f,     -0.138203f, 
    0.109729f,     -0.079472f,     0.170055f,     0.162052f,     0.057826f,     -0.165609f,     0.112715f,     0.067244f, 
    -0.149308f,     -0.117738f,     0.077646f,     -0.114427f,     0.004173f,     -0.142386f,     -0.097012f,     -0.015029f, 
    0.081245f,     -0.069716f,     -0.069291f,     0.015188f,     -0.040960f,     0.137981f,     -0.123610f,     -0.157369f, 
    0.148274f,     -0.070319f,     0.055624f,     -0.036030f,     0.033110f,     0.068039f,     -0.112700f,     -0.141755f, 
    0.032795f,     0.018542f,     0.091600f,     -0.083636f,     -0.127643f,     0.118023f,     0.153417f,     -0.065742f, 
    0.001048f,     -0.117667f,     0.116085f,     0.073911f,     0.130609f,     -0.062375f,     -0.153098f,     -0.028538f, 
    -0.139826f,     -0.017095f,     0.053972f,     -0.065485f,     -0.081392f,     0.086531f,     0.062563f,     0.052522f, 
    0.175758f,     0.065245f,     0.078903f,     -0.020698f,     0.075647f,     -0.165302f,     -0.158452f,     0.134772f, 
    -0.130210f,     0.157523f,     -0.114493f,     0.054786f,     0.028107f,     0.132731f,     -0.097650f,     -0.046036f, 
    -0.002520f,     0.101005f,     0.076135f,     -0.139050f,     0.074981f,     -0.053641f,     -0.122258f,     -0.120680f, 
    -0.116294f,     -0.066051f,     0.070208f,     0.174028f,     -0.125057f,     0.087395f,     -0.153998f,     0.117085f

};

const int fc2_weight_len = 1024;

const float fc2_bias[] = {
    -0.031359f,     -0.087868f,     -0.084417f,     -0.021425f,     -0.006579f,     0.140204f,     -0.136625f,     0.010593f, 
    0.029284f,     0.056983f,     -0.152187f,     0.129867f,     -0.143920f,     -0.124874f,     0.168965f,     0.129125f, 
    -0.025023f,     -0.124201f,     -0.169190f,     0.109134f,     -0.144933f,     0.124383f,     -0.120753f,     -0.135534f, 
    0.162587f,     0.146118f,     -0.085738f,     0.070887f,     0.077687f,     0.064609f,     -0.107472f,     -0.113272f

};

const int fc2_bias_len = 32;

const float fc3_weight[] = {
    0.063651f,     0.020974f,     -0.113799f,     -0.111868f,     -0.088014f,     0.018160f,     0.017097f,     0.038493f, 
    -0.132321f,     -0.112531f,     -0.171908f,     -0.093155f,     0.109740f,     -0.021850f,     -0.007759f,     0.121533f, 
    -0.130119f,     0.069108f,     -0.059109f,     0.002002f,     -0.054432f,     0.005996f,     0.111053f,     -0.005674f, 
    0.070225f,     0.076332f,     0.129650f,     -0.171639f,     0.174229f,     -0.148404f,     -0.160019f,     0.125995f, 
    0.146569f,     -0.131689f,     0.171206f,     -0.050389f,     -0.031702f,     0.154436f,     0.010345f,     0.053929f, 
    0.097179f,     0.066222f,     -0.107302f,     -0.125647f,     -0.065959f,     0.031613f,     0.015864f,     -0.028057f, 
    0.046957f,     0.022247f,     0.164847f,     0.022725f,     0.144105f,     0.161244f,     -0.022237f,     -0.029161f, 
    -0.163599f,     -0.013490f,     -0.032114f,     0.047242f,     0.016403f,     -0.106179f,     -0.166107f,     -0.091384f, 
    0.082400f,     0.116024f,     0.031102f,     0.044909f,     -0.135286f,     0.095859f,     -0.002895f,     0.111567f, 
    0.129126f,     -0.162672f,     -0.091203f,     0.035551f,     0.094255f,     -0.052474f,     -0.076120f,     0.153465f, 
    -0.005204f,     -0.175664f,     0.080570f,     0.035514f,     -0.156926f,     0.144299f,     0.013866f,     -0.051867f, 
    -0.148500f,     -0.032436f,     0.081862f,     0.157708f,     0.152770f,     0.105303f,     0.118128f,     0.045464f, 
    -0.041261f,     0.054618f,     0.134448f,     0.058980f,     -0.006912f,     0.038799f,     -0.075005f,     -0.175558f, 
    0.068619f,     0.014072f,     0.043370f,     -0.100854f,     0.020961f,     -0.161099f,     0.106462f,     0.147846f, 
    0.029591f,     -0.087731f,     0.132457f,     -0.118179f,     -0.012394f,     -0.040573f,     0.122810f,     -0.151739f, 
    -0.000644f,     -0.140192f,     -0.027301f,     -0.059321f,     0.030735f,     -0.175949f,     0.110485f,     0.063650f, 
    -0.045476f,     0.119079f,     0.028443f,     -0.129507f,     0.115280f,     -0.064281f,     0.084653f,     -0.090210f, 
    0.171242f,     0.146155f,     0.106799f,     -0.099147f,     0.054363f,     -0.087893f,     -0.027654f,     -0.081922f, 
    -0.003841f,     0.064781f,     0.126114f,     0.048655f,     0.068525f,     -0.012286f,     -0.119528f,     -0.096448f, 
    -0.133473f,     -0.126347f,     0.063377f,     -0.001351f,     0.152059f,     0.055930f,     -0.160168f,     -0.099132f

};

const int fc3_weight_len = 160;

const float fc3_bias[] = {
    -0.028274f,     -0.088216f,     -0.117277f,     0.163116f,     -0.003775f
};

const int fc3_bias_len = 5;

#endif // WEIGHTS_H
