// Auto-generated by weights_exporter.py
#ifndef WEIGHTS_H
#define WEIGHTS_H

#ifdef ARDUINO
#include <Arduino.h>
#else
#include "../tests/mock_arduino.h"
#endif

// Shape: [128, 13]
const float trunk_0_weight[1664] = {
    -0.210218f, -0.021855f, -0.042252f, -0.150052f, 0.163292f, -0.239795f, 0.147716f, 0.103553f, 0.061414f, 0.222744f,
    -0.168967f, -0.092816f, 0.145474f, 0.089343f, 0.194855f, -0.248956f, 0.053538f, 0.145675f, 0.258923f, 0.144122f,
    -0.003162f, 0.127494f, 0.233335f, 0.024020f, 0.137631f, -0.035697f, -0.042711f, 0.274765f, 0.001278f, -0.057713f,
    0.046777f, -0.159509f, 0.259086f, -0.041661f, -0.066486f, 0.094660f, 0.024051f, -0.149352f, -0.119200f, 0.034440f,
    -0.016997f, 0.025409f, -0.107209f, 0.036840f, 0.138601f, 0.265185f, -0.198545f, 0.001548f, -0.275911f, -0.163522f,
    0.233700f, 0.264651f, -0.094152f, -0.074436f, -0.014207f, -0.250024f, -0.214185f, -0.029619f, 0.027473f, -0.215013f,
    -0.275982f, 0.045928f, -0.209934f, 0.138437f, -0.037952f, 0.174142f, -0.024825f, -0.272765f, 0.179710f, -0.085064f,
    0.075030f, 0.208230f, 0.162783f, -0.156314f, -0.265433f, 0.056217f, 0.018315f, 0.096930f, -0.063817f, -0.059536f,
    -0.049564f, 0.252205f, 0.220486f, 0.002769f, 0.036991f, -0.248361f, 0.025627f, 0.259712f, 0.100032f, 0.212822f,
    0.068981f, 0.039091f, -0.216415f, -0.043064f, -0.117024f, -0.117658f, -0.054479f, 0.193763f, -0.242636f, -0.076947f,
    0.153538f, -0.024905f, 0.232687f, 0.142439f, 0.144107f, -0.130651f, 0.215586f, 0.025003f, -0.115099f, -0.092246f,
    0.273048f, -0.146642f, 0.265418f, 0.156312f, -0.226016f, 0.262250f, 0.052687f, -0.129091f, 0.254885f, 0.087850f,
    0.079617f, 0.199393f, 0.140376f, 0.010395f, 0.064724f, -0.020790f, -0.092664f, 0.220207f, 0.196558f, 0.267765f,
    0.196469f, 0.191325f, 0.046793f, 0.138332f, -0.202246f, 0.063824f, -0.098076f, -0.024484f, 0.001252f, 0.274930f,
    0.171417f, 0.120855f, -0.127292f, 0.103124f, 0.064439f, 0.104214f, -0.213904f, -0.083733f, -0.235037f, 0.205503f,
    -0.123877f, 0.220895f, -0.097873f, -0.166864f, 0.240529f, -0.123475f, -0.263119f, 0.011466f, -0.064624f, 0.071827f,
    -0.000621f, -0.253671f, -0.131849f, -0.021887f, 0.120696f, -0.095124f, 0.259072f, 0.230271f, 0.275313f, -0.244289f,
    0.030477f, 0.067487f, 0.202342f, 0.101211f, -0.221932f, -0.159181f, 0.193368f, -0.264395f, -0.011517f, 0.050632f,
    0.261574f, 0.124828f, -0.076835f, 0.269462f, 0.156677f, 0.051910f, 0.256208f, 0.229112f, -0.207597f, 0.104639f,
    0.105464f, -0.079316f, 0.092720f, 0.146873f, -0.225924f, -0.026057f, 0.169848f, 0.243710f, -0.154314f, 0.197677f,
    0.056621f, -0.226545f, -0.276061f, -0.128080f, -0.166640f, 0.190234f, -0.223844f, 0.193454f, -0.040016f, -0.184334f,
    -0.192149f, 0.181616f, -0.007669f, -0.233681f, 0.094347f, 0.184870f, 0.128134f, 0.053495f, -0.193002f, 0.249927f,
    0.239403f, -0.007514f, -0.159497f, 0.157969f, -0.054201f, 0.003929f, -0.273441f, -0.205169f, -0.002621f, -0.161546f,
    0.062169f, 0.264093f, -0.194833f, 0.103054f, 0.194507f, 0.267889f, 0.222654f, 0.067697f, 0.189401f, -0.216947f,
    -0.061816f, -0.050736f, 0.027719f, 0.262500f, 0.047400f, 0.015036f, -0.143814f, 0.160837f, -0.203010f, -0.070563f,
    -0.147755f, 0.230039f, -0.267286f, 0.149872f, 0.019565f, 0.100108f, 0.227781f, 0.271028f, -0.071850f, 0.187628f,
    -0.204254f, -0.191620f, 0.030088f, 0.061975f, 0.168744f, -0.049379f, -0.048422f, 0.037893f, 0.112465f, -0.063345f,
    0.195738f, 0.034556f, 0.021324f, 0.081375f, 0.081262f, -0.104014f, -0.146915f, -0.106043f, -0.262684f, 0.196728f,
    0.158605f, -0.129050f, -0.259897f, 0.162267f, -0.275224f, 0.159720f, -0.066169f, 0.259877f, -0.202793f, -0.247848f,
    0.070803f, -0.044824f, -0.162356f, 0.097333f, 0.179116f, -0.242637f, 0.046384f, -0.052422f, -0.269061f, 0.088764f,
    0.178842f, -0.090764f, -0.222678f, -0.134721f, -0.104116f, -0.264882f, 0.253753f, -0.167209f, -0.018127f, 0.111276f,
    -0.049176f, -0.067620f, 0.144903f, -0.176380f, -0.267751f, 0.263085f, -0.073323f, 0.043880f, 0.198222f, -0.150904f,
    -0.187308f, -0.048023f, -0.098504f, -0.218157f, 0.032399f, -0.155631f, 0.211522f, 0.247077f, -0.195860f, -0.096488f,
    -0.107216f, 0.151987f, 0.272375f, -0.149204f, 0.252003f, -0.200171f, -0.084600f, 0.076950f, -0.201839f, 0.186302f,
    -0.065005f, -0.266949f, 0.253662f, -0.267056f, 0.086013f, 0.181339f, -0.247521f, -0.051728f, -0.143144f, 0.146608f,
    0.156041f, -0.183134f, 0.231655f, -0.152421f, -0.250752f, 0.196780f, -0.078585f, -0.213497f, -0.238432f, -0.001670f,
    -0.167067f, -0.022779f, 0.121471f, 0.123869f, 0.226908f, -0.002396f, -0.123868f, 0.252304f, -0.137749f, -0.242815f,
    -0.054396f, 0.262606f, 0.191456f, -0.152997f, 0.177901f, 0.276611f, -0.011673f, -0.084851f, -0.251540f, 0.219725f,
    0.089331f, 0.227832f, -0.073892f, -0.054837f, -0.245702f, 0.218657f, 0.132988f, -0.041609f, -0.162885f, 0.050354f,
    0.140944f, 0.132990f, -0.121263f, 0.168449f, 0.142299f, 0.013645f, -0.095310f, -0.089458f, 0.127373f, -0.107766f,
    -0.006601f, 0.143653f, 0.115498f, -0.009625f, 0.014377f, 0.213290f, 0.125911f, 0.171936f, -0.060984f, 0.129585f,
    0.174713f, 0.000336f, -0.173252f, 0.204119f, 0.099789f, 0.250870f, -0.084257f, -0.216393f, -0.019175f, 0.081069f,
    -0.052437f, -0.183659f, -0.267150f, 0.270223f, -0.076965f, -0.199789f, -0.049735f, -0.077191f, -0.167264f, 0.208775f,
    0.258164f, -0.157614f, -0.191893f, 0.035305f, -0.104115f, -0.196700f, -0.031477f, -0.209152f, -0.175489f, -0.213673f,
    0.159117f, -0.137234f, -0.081422f, 0.226994f, -0.162132f, 0.102967f, 0.080007f, 0.199263f, -0.260022f, -0.256555f,
    -0.191290f, -0.093428f, 0.144504f, 0.151560f, 0.132741f, -0.251356f, 0.158908f, -0.062942f, -0.066679f, -0.268410f,
    0.017861f, -0.260393f, 0.223942f, -0.253731f, -0.061787f, 0.046639f, 0.268211f, -0.065928f, 0.152782f, 0.035115f,
    0.215343f, -0.116971f, -0.215304f, 0.068054f, 0.079461f, -0.231335f, -0.076794f, -0.199090f, -0.211429f, 0.091330f,
    -0.200962f, -0.080207f, 0.182246f, -0.214034f, -0.192687f, 0.156755f, -0.176319f, 0.139460f, -0.208578f, 0.192832f,
    0.236455f, 0.147157f, 0.135110f, -0.200877f, 0.125154f, 0.032173f, 0.031382f, -0.142389f, -0.037560f, 0.267523f,
    0.001179f, 0.145816f, 0.015019f, -0.085748f, -0.216047f, 0.116255f, 0.046147f, 0.033492f, 0.148761f, 0.182544f,
    0.149883f, -0.234940f, -0.186675f, -0.148562f, 0.002661f, -0.039014f, 0.181672f, -0.252239f, -0.094382f, -0.158590f,
    0.250545f, -0.168207f, 0.196389f, -0.088195f, 0.045053f, 0.263163f, 0.065641f, -0.174060f, 0.199337f, -0.258621f,
    -0.111612f, 0.078856f, 0.027406f, -0.225632f, 0.030138f, 0.034762f, 0.169155f, -0.268214f, 0.164318f, -0.085894f,
    0.193412f, -0.160646f, 0.100911f, 0.034188f, 0.180403f, 0.078792f, -0.199745f, 0.141316f, -0.145220f, -0.175847f,
    0.105694f, -0.071968f, -0.194571f, 0.041561f, 0.121048f, -0.019111f, -0.159502f, 0.195527f, -0.066041f, -0.078865f,
    0.267457f, -0.181303f, -0.220590f, -0.167283f, 0.005264f, -0.076344f, 0.102204f, 0.047188f, 0.117576f, 0.049180f,
    0.113788f, -0.039030f, -0.234306f, 0.081854f, 0.055127f, 0.168577f, 0.219048f, -0.020445f, -0.131019f, 0.178999f,
    -0.126529f, 0.157053f, 0.017173f, 0.058331f, -0.191911f, -0.016443f, 0.039308f, 0.043609f, 0.105252f, 0.016178f,
    -0.213288f, 0.028095f, -0.254667f, -0.009625f, -0.008831f, -0.017069f, -0.092539f, -0.132718f, 0.034462f, -0.227243f,
    0.165307f, 0.034373f, -0.168275f, 0.210604f, 0.222476f, 0.042764f, -0.149799f, -0.079671f, -0.184020f, -0.261685f,
    -0.272406f, -0.041650f, -0.004093f, 0.071883f, 0.018063f, -0.069491f, 0.102891f, 0.031226f, 0.191057f, -0.189920f,
    -0.117470f, -0.120217f, -0.050133f, -0.136764f, 0.133530f, -0.010250f, -0.161255f, -0.055915f, -0.174902f, -0.165120f,
    0.088773f, 0.095905f, -0.127937f, 0.193047f, -0.226821f, 0.114787f, 0.014072f, -0.261308f, -0.071331f, -0.006172f,
    -0.226595f, 0.065063f, 0.064004f, -0.142168f, 0.139800f, -0.188933f, -0.246897f, 0.202326f, 0.104566f, -0.149700f,
    0.141730f, 0.124584f, 0.235807f, -0.154742f, -0.127439f, 0.253571f, 0.006427f, -0.102021f, 0.064954f, -0.013482f,
    -0.234720f, -0.236164f, -0.050550f, -0.192557f, -0.200734f, -0.107399f, 0.127879f, -0.109467f, 0.064526f, -0.075620f,
    0.154810f, -0.256743f, -0.173498f, 0.220418f, 0.060547f, -0.215411f, -0.074526f, 0.233170f, -0.069776f, 0.261297f,
    0.016295f, -0.227144f, -0.057447f, -0.118476f, 0.197711f, 0.131761f, -0.259705f, -0.034680f, -0.157967f, 0.044500f,
    0.028982f, -0.065338f, -0.084273f, 0.014405f, 0.209207f, 0.135318f, 0.052539f, 0.114469f, -0.141575f, -0.078508f,
    0.227580f, -0.022932f, 0.046918f, -0.234060f, 0.066001f, -0.059036f, 0.139932f, 0.002528f, -0.187920f, 0.012292f,
    0.275310f, 0.079874f, 0.178071f, -0.057253f, -0.068326f, 0.202999f, -0.047660f, -0.124976f, 0.116162f, 0.234891f,
    -0.096562f, 0.170646f, 0.102500f, 0.264748f, -0.115994f, 0.247277f, -0.132421f, -0.221436f, 0.148591f, -0.082361f,
    0.131709f, -0.222570f, 0.095583f, -0.061281f, 0.148205f, 0.265008f, 0.101305f, 0.000086f, -0.058455f, 0.078778f,
    0.091953f, 0.098321f, -0.276753f, -0.223081f, 0.047815f, 0.151632f, -0.080835f, -0.043640f, 0.065164f, -0.178841f,
    0.095167f, -0.265426f, 0.178424f, 0.142311f, -0.142447f, 0.271932f, -0.069983f, 0.262428f, 0.248190f, -0.005400f,
    -0.243546f, 0.009946f, 0.153921f, 0.153240f, 0.188536f, 0.210298f, -0.088692f, -0.192612f, -0.041845f, 0.062949f,
    -0.086143f, 0.074112f, 0.181189f, -0.163859f, -0.010909f, 0.038138f, -0.213147f, 0.114646f, 0.222793f, -0.231914f,
    0.124355f, 0.189650f, 0.191951f, -0.054614f, -0.195937f, 0.045974f, 0.041176f, 0.142651f, -0.235653f, -0.230680f,
    0.233509f, 0.261000f, 0.142651f, -0.237624f, 0.263713f, 0.084451f, 0.005236f, -0.153388f, -0.270276f, -0.092750f,
    0.038305f, 0.090980f, 0.110615f, 0.261712f, 0.162638f, -0.244971f, 0.196776f, -0.086090f, -0.103944f, 0.253587f,
    0.149593f, 0.055883f, -0.186504f, 0.049405f, 0.240219f, -0.124302f, -0.230530f, 0.180903f, -0.228130f, 0.246675f,
    0.246188f, 0.241121f, -0.023795f, -0.128175f, 0.072815f, -0.202351f, -0.200705f, -0.238634f, -0.075851f, -0.230218f,
    0.114969f, -0.033306f, 0.120717f, -0.170617f, 0.003681f, -0.047636f, 0.126221f, 0.013329f, 0.193675f, 0.122808f,
    -0.226464f, 0.145202f, -0.025110f, 0.023919f, -0.115330f, -0.161250f, -0.151716f, -0.189433f, -0.215636f, -0.107658f,
    0.180611f, -0.212773f, -0.243475f, 0.052211f, 0.212791f, 0.066122f, -0.187930f, -0.169051f, 0.209746f, 0.184530f,
    0.182115f, -0.176273f, -0.175972f, 0.083140f, -0.266555f, 0.026938f, -0.082805f, -0.061995f, 0.125011f, 0.149157f,
    0.044119f, 0.003295f, -0.195347f, 0.094652f, -0.147292f, -0.169059f, 0.153724f, 0.193679f, -0.069413f, 0.048465f,
    -0.066866f, 0.072651f, 0.187461f, -0.091510f, 0.157657f, -0.062799f, 0.151574f, 0.237841f, -0.032049f, -0.043338f,
    0.269427f, 0.108537f, 0.164848f, -0.209513f, 0.063271f, 0.092557f, 0.272881f, -0.173990f, 0.145544f, 0.139733f,
    -0.154767f, 0.224118f, -0.250977f, -0.260865f, -0.194452f, -0.002299f, 0.250232f, -0.150250f, -0.228765f, 0.094847f,
    -0.186034f, 0.048310f, 0.009134f, 0.251610f, 0.272347f, 0.018493f, 0.215368f, -0.146400f, -0.137279f, 0.084187f,
    0.160612f, 0.096464f, 0.048022f, 0.101321f, 0.226300f, 0.208934f, 0.275504f, -0.207556f, -0.049150f, 0.083575f,
    -0.211086f, 0.253503f, 0.083544f, 0.159842f, 0.127149f, -0.055224f, 0.001189f, -0.257732f, 0.185115f, -0.205418f,
    0.100096f, 0.253594f, -0.118210f, -0.264991f, 0.132212f, 0.100093f, 0.140940f, 0.078363f, -0.045052f, -0.136010f,
    -0.109712f, -0.181047f, 0.196991f, 0.255635f, -0.073333f, -0.213684f, -0.087781f, 0.201033f, -0.264840f, -0.007188f,
    -0.063735f, 0.165110f, -0.130156f, 0.096062f, 0.228274f, -0.145183f, 0.078097f, 0.255977f, 0.186289f, -0.100845f,
    -0.108185f, 0.026414f, 0.169228f, 0.172695f, 0.207303f, 0.238662f, 0.014770f, -0.122395f, 0.154748f, -0.019148f,
    -0.179573f, -0.085569f, 0.199187f, -0.059078f, -0.033318f, 0.064476f, -0.073873f, 0.164768f, 0.024604f, 0.032353f,
    -0.143940f, 0.163964f, -0.249443f, -0.030839f, -0.193797f, 0.109424f, 0.114460f, -0.269720f, -0.117243f, -0.239661f,
    -0.134652f, 0.190226f, -0.084457f, -0.220156f, 0.267792f, -0.276771f, -0.096082f, 0.243948f, -0.067235f, -0.224256f,
    0.200548f, -0.044163f, 0.109586f, -0.230204f, 0.188102f, 0.032910f, -0.046822f, -0.060845f, 0.221030f, -0.195897f,
    0.002732f, -0.063337f, -0.095192f, -0.037930f, -0.255610f, -0.206265f, -0.191066f, 0.113614f, -0.191539f, 0.162923f,
    0.197677f, -0.269931f, 0.094010f, -0.070726f, -0.228088f, 0.088955f, 0.171544f, 0.089389f, 0.216637f, -0.208612f,
    -0.257567f, 0.189012f, -0.199422f, -0.195172f, 0.165286f, 0.074783f, -0.187301f, -0.250242f, 0.200490f, -0.001668f,
    -0.235342f, -0.158226f, -0.210741f, -0.036641f, 0.098335f, 0.036119f, -0.032113f, 0.141932f, 0.150822f, 0.190810f,
    0.119630f, 0.161447f, -0.212788f, -0.178610f, 0.264175f, -0.048310f, 0.129608f, 0.044270f, -0.157656f, 0.189402f,
    0.255660f, 0.271485f, 0.236112f, 0.160118f, -0.132537f, 0.032031f, -0.047332f, -0.251598f, -0.251036f, 0.265692f,
    0.231395f, -0.238832f, 0.002202f, 0.125503f, -0.128393f, -0.226843f, -0.135465f, -0.039172f, -0.161305f, 0.027060f,
    -0.162680f, -0.261825f, -0.169596f, 0.159038f, -0.098981f, 0.060850f, 0.150275f, -0.234772f, 0.082813f, -0.048719f,
    0.266958f, -0.214459f, -0.189063f, -0.080403f, 0.035150f, 0.211630f, -0.243030f, -0.064063f, 0.151213f, -0.226023f,
    -0.132309f, 0.106476f, -0.203286f, -0.058923f, 0.216166f, -0.024023f, 0.045697f, 0.145048f, -0.277141f, -0.022529f,
    -0.050062f, -0.032820f, -0.193397f, 0.272119f, 0.277063f, -0.135406f, 0.038854f, 0.257954f, 0.267089f, 0.160196f,
    0.242713f, 0.115557f, 0.176153f, 0.034951f, -0.181775f, -0.261750f, 0.012030f, -0.007399f, 0.205738f, -0.245982f,
    0.162297f, 0.100505f, 0.241908f, -0.198369f, 0.260566f, -0.071253f, 0.100806f, 0.160136f, 0.121749f, -0.012684f,
    -0.089536f, -0.117304f, -0.036851f, 0.076631f, 0.085370f, 0.236114f, 0.139923f, -0.202363f, 0.137582f, 0.153636f,
    0.089173f, 0.233583f, 0.050080f, -0.250649f, 0.255743f, -0.239958f, 0.057898f, -0.213415f, -0.135559f, -0.217526f,
    -0.171154f, 0.084104f, 0.036606f, -0.179571f, 0.137965f, 0.245427f, 0.015498f, -0.218699f, 0.263338f, -0.013728f,
    -0.039245f, -0.078684f, -0.053769f, -0.260195f, -0.114028f, 0.152595f, -0.276901f, -0.231422f, -0.204547f, -0.101239f,
    -0.266579f, 0.046180f, -0.208178f, 0.144530f, -0.217057f, -0.010652f, -0.204061f, -0.110561f, 0.195444f, 0.118941f,
    -0.041698f, 0.189893f, 0.163747f, 0.007506f, 0.137496f, -0.182112f, -0.053351f, 0.117673f, -0.011893f, -0.083802f,
    0.007969f, 0.051605f, -0.039216f, -0.068728f, -0.090961f, 0.210828f, -0.131572f, 0.011888f, 0.202766f, 0.093401f,
    -0.141429f, 0.200211f, 0.063636f, 0.127107f, -0.146348f, 0.136170f, -0.202513f, -0.145829f, 0.200483f, -0.070039f,
    0.261922f, -0.224949f, -0.007099f, 0.107453f, 0.173284f, 0.144756f, -0.004275f, 0.220498f, -0.112348f, -0.095503f,
    -0.259276f, -0.169175f, 0.259197f, 0.078474f, 0.081643f, 0.011829f, -0.116434f, 0.154794f, -0.257034f, 0.219705f,
    -0.013237f, 0.191620f, -0.189779f, 0.155196f, 0.197378f, 0.268739f, -0.172415f, 0.196295f, 0.187416f, -0.077054f,
    0.163269f, 0.096256f, -0.252055f, 0.185824f, -0.094559f, -0.058004f, 0.105783f, 0.201853f, -0.043885f, -0.034027f,
    0.082402f, 0.233913f, -0.159585f, -0.218033f, -0.010583f, 0.005954f, -0.255830f, 0.230668f, 0.235143f, -0.115160f,
    -0.200921f, -0.183769f, -0.214598f, -0.070742f, -0.060105f, 0.160600f, 0.061915f, -0.273911f, 0.033221f, -0.115135f,
    0.205277f, -0.135232f, 0.080173f, 0.132262f, 0.266652f, -0.268704f, 0.136657f, -0.051191f, -0.243288f, -0.060908f,
    -0.260007f, -0.099433f, -0.007269f, 0.127265f, 0.111554f, -0.047312f, -0.030941f, 0.094930f, 0.104664f, 0.111086f,
    -0.244004f, -0.012186f, -0.019868f, 0.169505f, -0.078328f, -0.276748f, 0.057760f, -0.217913f, 0.210602f, 0.007702f,
    0.113192f, -0.129774f, 0.242339f, -0.039065f, -0.220000f, -0.165742f, 0.085390f, -0.005382f, -0.264465f, -0.165901f,
    0.218863f, -0.190721f, 0.238539f, 0.233087f, 0.214436f, 0.224683f, 0.073870f, -0.048547f, -0.245528f, 0.190854f,
    -0.181747f, 0.001625f, 0.011525f, -0.154132f, -0.170114f, -0.190845f, -0.162818f, -0.162399f, -0.261063f, -0.248799f,
    0.018118f, -0.258110f, 0.164666f, -0.035992f, 0.028308f, -0.260725f, 0.145163f, 0.148263f, -0.184439f, 0.117200f,
    -0.147007f, -0.142823f, -0.024162f, 0.073941f, -0.022073f, -0.240915f, 0.086110f, 0.060254f, 0.112639f, 0.113310f,
    -0.061378f, 0.062301f, -0.121707f, 0.166277f, -0.177328f, 0.151701f, 0.273203f, 0.078942f, 0.141657f, -0.219504f,
    -0.189839f, 0.042621f, -0.256642f, 0.135842f, 0.276275f, 0.232327f, -0.063260f, -0.067528f, 0.104029f, -0.155733f,
    0.052313f, -0.120162f, -0.161933f, 0.109306f, 0.168411f, 0.055878f, -0.169337f, -0.276806f, -0.047352f, 0.109360f,
    -0.078327f, -0.117755f, 0.257807f, 0.135007f, -0.189229f, 0.121173f, -0.262346f, -0.121484f, -0.026291f, -0.135730f,
    0.130800f, -0.180946f, 0.130187f, -0.229055f, -0.043286f, 0.215795f, 0.056951f, 0.023578f, 0.217141f, 0.014394f,
    -0.178902f, 0.166753f, 0.266107f, -0.190986f, -0.016079f, -0.029806f, -0.060238f, 0.267828f, -0.219500f, -0.059638f,
    -0.272141f, -0.246779f, 0.147080f, -0.190901f, 0.120130f, 0.241897f, -0.180570f, 0.122843f, 0.232481f, 0.021335f,
    0.271745f, 0.070533f, 0.070024f, 0.267460f, 0.010814f, 0.036495f, -0.059703f, -0.107742f, -0.145615f, -0.196658f,
    -0.077359f, 0.119692f, 0.211239f, -0.075299f, 0.147592f, -0.200952f, -0.068694f, -0.183446f, 0.073629f, -0.205071f,
    0.054439f, -0.011513f, -0.050740f, 0.230279f, 0.190412f, 0.250185f, 0.233872f, 0.103188f, -0.125375f, 0.038667f,
    0.227226f, 0.223974f, 0.248860f, -0.212970f, -0.221924f, -0.043068f, 0.001013f, 0.198029f, -0.181488f, -0.134120f,
    -0.094441f, 0.188476f, 0.056445f, -0.240405f, -0.025723f, -0.128837f, -0.211643f, -0.050057f, -0.144048f, -0.241814f,
    -0.179840f, 0.211590f, -0.126690f, -0.202029f, -0.268932f, 0.107838f, 0.248761f, 0.235605f, -0.139206f, 0.099974f,
    -0.066048f, 0.225943f, -0.071241f, 0.116273f, -0.065272f, 0.228981f, 0.164737f, 0.090457f, 0.219392f, 0.183166f,
    -0.056599f, 0.118430f, 0.212081f, -0.163484f, 0.119315f, 0.160406f, 0.063369f, -0.002296f, 0.258209f, 0.130389f,
    0.252584f, 0.011044f, 0.242671f, 0.276725f, -0.108263f, 0.223320f, 0.083574f, -0.158714f, -0.254083f, -0.001718f,
    -0.090798f, -0.211775f, -0.006958f, -0.195183f, -0.120875f, -0.207909f, -0.108331f, 0.213224f, 0.216015f, -0.176909f,
    0.065531f, 0.067341f, -0.234968f, 0.180241f, -0.193356f, -0.156759f, -0.226306f, -0.138559f, -0.214219f, 0.266851f,
    -0.099849f, -0.104931f, 0.082944f, -0.043666f, 0.077191f, -0.034358f, 0.091464f, 0.262208f, 0.271336f, -0.126166f,
    -0.069498f, -0.178942f, -0.235209f, 0.218336f, -0.037956f, -0.134689f, -0.065971f, -0.217530f, 0.063639f, -0.154341f,
    0.263361f, 0.136987f, -0.232775f, 0.116413f, -0.157915f, -0.175825f, 0.178875f, 0.136987f, 0.263682f, -0.175684f,
    -0.150997f, 0.127033f, -0.072315f, 0.094520f, -0.207439f, -0.236193f, 0.207173f, -0.133422f, -0.126097f, -0.271604f,
    0.056238f, 0.047435f, -0.114235f, -0.115153f, -0.231984f, 0.112428f, 0.167321f, -0.050737f, 0.132481f, 0.184031f,
    -0.110027f, 0.126823f, 0.004715f, 0.013626f, -0.028718f, -0.156604f, -0.093273f, -0.254446f, -0.015452f, -0.227991f,
    0.034778f, -0.032026f, 0.243720f, -0.057151f, 0.232409f, 0.015956f, -0.213708f, -0.075337f, 0.008317f, -0.104431f,
    -0.008204f, 0.172892f, -0.220894f, 0.113099f, 0.134107f, -0.056706f, -0.042111f, 0.048601f, -0.058385f, -0.039100f,
    0.185264f, 0.089742f, 0.248128f, 0.086990f, 0.190325f, -0.110260f, -0.270730f, -0.257615f, -0.276964f, -0.270952f,
    -0.157865f, 0.202554f, -0.086769f, -0.157955f, 0.235578f, -0.030840f, -0.015633f, 0.216384f, -0.097595f, 0.012884f,
    0.187616f, -0.083466f, 0.078691f, 0.008970f, 0.006629f, 0.086392f, -0.220045f, -0.082986f, 0.124041f, 0.172244f,
    0.096721f, 0.065123f, 0.120031f, -0.207929f
};

// Shape: [128]
const float trunk_0_bias[128] = {
    -0.266977f, -0.190274f, -0.086139f, 0.041587f, 0.095288f, 0.065556f, 0.189891f, -0.180493f, 0.072068f, -0.191572f,
    0.236832f, 0.221528f, 0.110788f, 0.020866f, -0.054574f, 0.218431f, 0.235947f, 0.179266f, -0.146097f, 0.066115f,
    -0.253804f, -0.090501f, -0.085896f, 0.104202f, 0.078075f, -0.157910f, 0.049309f, -0.260729f, -0.115235f, -0.262026f,
    -0.084369f, 0.145751f, -0.167399f, -0.140974f, 0.256920f, 0.163446f, -0.212566f, 0.213034f, 0.167097f, -0.019606f,
    0.272605f, -0.114472f, 0.044796f, 0.135581f, 0.056731f, 0.239034f, 0.242189f, -0.015993f, 0.218242f, -0.236553f,
    -0.174731f, -0.060471f, -0.220709f, -0.101891f, 0.216900f, -0.006457f, 0.199248f, -0.166733f, -0.011222f, -0.173730f,
    0.093982f, -0.024341f, -0.083706f, 0.037596f, 0.091173f, -0.167847f, 0.154138f, 0.251828f, 0.037278f, -0.179070f,
    -0.231105f, 0.276428f, 0.139669f, 0.248122f, -0.206311f, -0.117667f, -0.204984f, -0.263204f, 0.127322f, -0.251926f,
    0.161473f, -0.237460f, 0.027237f, 0.199661f, -0.161337f, -0.212457f, 0.257836f, 0.063100f, 0.114589f, 0.110793f,
    -0.210459f, -0.171041f, -0.129857f, -0.021021f, 0.068115f, 0.276229f, 0.272828f, 0.109833f, 0.218897f, -0.119731f,
    -0.151224f, 0.165107f, 0.159175f, 0.199050f, -0.219508f, 0.033293f, 0.110288f, 0.061272f, 0.173933f, 0.269219f,
    -0.108005f, 0.212131f, 0.173607f, -0.066732f, -0.113519f, 0.123402f, 0.163206f, 0.155910f, 0.192434f, 0.143486f,
    -0.149703f, -0.048246f, 0.004796f, 0.116808f, 0.210514f, 0.001000f, 0.248312f, -0.162727f
};

// Shape: [128, 128]
const float trunk_3_weight[16384] = {
    -0.007109f, 0.062829f, -0.066002f, 0.015354f, 0.060650f, -0.037174f, -0.086383f, 0.081651f, -0.062469f, 0.082541f,
    0.075187f, -0.045641f, -0.041304f, 0.040112f, -0.081603f, 0.033902f, 0.005465f, 0.036671f, -0.047506f, 0.029436f,
    -0.011163f, 0.055533f, -0.029107f, -0.059798f, -0.044357f, 0.001742f, -0.039160f, -0.059799f, -0.087344f, 0.074939f,
    -0.072380f, 0.074624f, 0.066362f, -0.042987f, 0.020963f, 0.062122f, -0.073523f, -0.053103f, 0.077700f, -0.052293f,
    -0.054846f, -0.064847f, -0.073545f, -0.040815f, 0.047912f, 0.075122f, 0.038752f, 0.036514f, -0.036720f, 0.087850f,
    0.022650f, 0.039514f, 0.010091f, 0.053049f, 0.025521f, 0.034520f, -0.087118f, 0.070670f, 0.008922f, -0.029261f,
    0.065680f, -0.071434f, 0.037159f, 0.018335f, -0.021034f, -0.007050f, -0.051170f, 0.032291f, -0.029408f, -0.031208f,
    -0.025171f, -0.048004f, -0.076336f, 0.070925f, -0.087488f, 0.054703f, -0.063776f, 0.079860f, 0.075276f, -0.046654f,
    0.006783f, 0.055752f, 0.086810f, 0.021226f, -0.076078f, 0.083795f, -0.081873f, 0.020903f, 0.060953f, -0.021793f,
    -0.003035f, 0.012832f, -0.082356f, -0.006575f, 0.011966f, -0.042141f, 0.069183f, 0.013242f, 0.073385f, -0.076674f,
    -0.054472f, -0.050472f, -0.030765f, -0.019856f, -0.077373f, -0.050997f, 0.021362f, 0.064575f, 0.019093f, -0.015099f,
    -0.043154f, -0.055040f, 0.065534f, -0.076203f, 0.062663f, 0.014029f, 0.072729f, -0.031107f, 0.051789f, 0.053100f,
    -0.007743f, 0.063253f, -0.085076f, 0.013703f, -0.079747f, -0.023357f, -0.051337f, 0.028093f, -0.085822f, 0.041443f,
    -0.078567f, -0.039988f, -0.068015f, 0.009114f, 0.060138f, -0.048775f, -0.021690f, -0.076394f, -0.026236f, 0.008393f,
    -0.082941f, 0.053877f, 0.017096f, 0.060122f, 0.079177f, -0.032225f, 0.042410f, 0.068420f, 0.006927f, -0.027234f,
    -0.037507f, -0.016477f, 0.078930f, 0.060022f, 0.009080f, 0.072543f, 0.035278f, 0.011189f, -0.088104f, 0.031283f,
    -0.084108f, 0.002273f, 0.073027f, 0.019835f, -0.066198f, 0.037435f, 0.032595f, 0.067227f, 0.038597f, 0.008395f,
    -0.000495f, -0.019057f, -0.040400f, 0.044303f, 0.028216f, 0.022607f, 0.002679f, -0.039386f, 0.073199f, 0.072050f,
    -0.074170f, 0.055639f, 0.079614f, 0.034073f, -0.015524f, -0.076358f, -0.024145f, 0.033695f, -0.045012f, -0.071658f,
    0.032751f, -0.068554f, -0.056258f, -0.066784f, 0.010536f, -0.075312f, -0.085464f, 0.026998f, 0.075834f, 0.013674f,
    -0.051714f, -0.080771f, -0.045114f, -0.082271f, -0.047782f, 0.088304f, -0.027642f, 0.001803f, -0.006849f, 0.012209f,
    -0.046634f, 0.044180f, 0.068658f, 0.032030f, -0.046309f, -0.018743f, 0.003890f, -0.002598f, -0.036212f, -0.073408f,
    0.052376f, 0.011079f, -0.000999f, 0.081598f, -0.002159f, -0.038768f, 0.051513f, 0.085454f, -0.013792f, 0.051672f,
    0.020946f, -0.029951f, 0.088048f, -0.080440f, -0.050677f, -0.067355f, -0.075565f, 0.037711f, 0.009319f, 0.058503f,
    -0.040752f, 0.014307f, -0.025312f, 0.056393f, -0.024715f, -0.027493f, 0.000449f, -0.038042f, -0.008954f, -0.020814f,
    -0.086906f, -0.070895f, -0.048998f, 0.018916f, -0.047310f, 0.020228f, 0.055449f, 0.001371f, -0.010237f, -0.073081f,
    0.009904f, 0.050233f, 0.087479f, 0.033893f, -0.081865f, 0.036478f, 0.027089f, -0.034011f, 0.060195f, 0.031433f,
    -0.020402f, 0.020230f, -0.013884f, -0.040335f, -0.030911f, -0.018533f, -0.007308f, 0.010481f, 0.002577f, -0.062488f,
    -0.030009f, 0.037999f, 0.073083f, -0.068958f, -0.031452f, -0.079032f, 0.085805f, -0.059678f, 0.050069f, 0.038876f,
    -0.060909f, 0.059124f, -0.045736f, 0.049789f, -0.053237f, -0.062198f, -0.017175f, 0.009593f, 0.017451f, -0.001762f,
    0.075360f, -0.028493f, -0.022547f, -0.084434f, -0.002762f, 0.046457f, -0.082733f, -0.070480f, -0.084526f, -0.023286f,
    0.021488f, -0.055150f, -0.013097f, 0.012156f, 0.084918f, 0.084150f, -0.031708f, -0.030234f, 0.086663f, 0.012663f,
    -0.030202f, -0.028998f, 0.027100f, -0.023901f, 0.055082f, -0.010849f, 0.032063f, 0.007563f, -0.075008f, 0.000979f,
    0.015687f, 0.040449f, 0.071384f, 0.002910f, -0.055232f, 0.014808f, 0.086020f, -0.085166f, -0.086305f, 0.051628f,
    -0.013550f, 0.045925f, -0.051773f, 0.087768f, -0.029432f, 0.067499f, -0.043436f, 0.003602f, 0.085393f, 0.066965f,
    0.004254f, -0.053123f, -0.083738f, -0.000063f, 0.035158f, -0.053569f, 0.046523f, 0.087667f, 0.015204f, 0.007363f,
    0.070808f, 0.022253f, -0.031357f, -0.049709f, -0.049756f, -0.009112f, -0.050596f, -0.043871f, 0.077087f, -0.028532f,
    0.061638f, -0.018555f, -0.003635f, -0.067704f, 0.019028f, 0.016092f, -0.039888f, 0.070399f, -0.008497f, 0.032855f,
    0.005834f, 0.079163f, 0.003362f, 0.016616f, 0.003173f, 0.086125f, 0.059689f, -0.049108f, 0.020655f, -0.033739f,
    -0.031035f, 0.029525f, -0.033236f, -0.055779f, 0.018074f, -0.023931f, -0.086228f, 0.067643f, 0.009927f, -0.068343f,
    0.043093f, 0.055856f, 0.084209f, 0.008849f, 0.078244f, -0.077367f, 0.087393f, 0.038843f, -0.056949f, 0.006808f,
    -0.067728f, -0.027842f, 0.034690f, 0.080314f, 0.043035f, -0.028544f, -0.070563f, -0.082978f, -0.050128f, 0.078636f,
    -0.079159f, 0.036058f, -0.043858f, 0.052954f, -0.084077f, 0.074162f, -0.034031f, -0.077360f, -0.064813f, -0.079148f,
    0.056387f, -0.035810f, -0.051802f, -0.054932f, -0.084903f, -0.018394f, 0.046388f, 0.074702f, -0.081736f, -0.048169f,
    -0.017955f, 0.060141f, 0.056414f, 0.071549f, 0.079246f, -0.048618f, -0.015344f, -0.039161f, -0.009935f, -0.034217f,
    -0.060672f, 0.072218f, 0.020746f, 0.041073f, 0.048569f, 0.032185f, -0.007347f, 0.069463f, 0.022181f, 0.017280f,
    -0.082452f, 0.047142f, 0.070280f, 0.029800f, -0.033839f, -0.001255f, -0.017917f, 0.059058f, 0.081940f, 0.012366f,
    0.068606f, -0.041186f, 0.073194f, 0.003968f, 0.015951f, 0.001077f, -0.051558f, 0.010135f, 0.076710f, 0.079279f,
    0.016796f, 0.039961f, -0.045609f, 0.020965f, -0.037698f, 0.012735f, 0.050689f, 0.086161f, 0.048097f, 0.007639f,
    0.051843f, -0.026459f, -0.052181f, 0.062723f, 0.002310f, 0.056638f, 0.024149f, 0.068239f, -0.039484f, 0.047372f,
    -0.010960f, 0.073461f, -0.050231f, -0.041653f, 0.025554f, -0.041807f, -0.023730f, 0.033112f, 0.004847f, -0.039919f,
    -0.020393f, 0.068294f, 0.028430f, -0.029651f, -0.004221f, 0.063117f, 0.020095f, 0.015317f, 0.048370f, 0.038148f,
    0.010658f, 0.062498f, -0.077039f, -0.069935f, 0.002233f, -0.008621f, -0.056202f, 0.027109f, 0.030328f, -0.047708f,
    -0.006059f, 0.051681f, 0.001018f, -0.000732f, -0.031540f, 0.052710f, 0.083545f, -0.002451f, -0.072149f, -0.061480f,
    0.065692f, 0.087985f, 0.047945f, 0.000608f, 0.016141f, 0.043734f, -0.030296f, -0.074328f, 0.074297f, -0.015761f,
    -0.012531f, -0.083355f, -0.015432f, 0.058610f, -0.051270f, -0.012671f, -0.048039f, -0.061559f, -0.069801f, -0.010673f,
    0.011790f, 0.046889f, -0.085291f, 0.043884f, -0.086746f, 0.062086f, -0.021149f, -0.031426f, -0.037648f, 0.048420f,
    -0.036073f, -0.060696f, -0.086452f, 0.087753f, 0.064425f, -0.067691f, 0.050048f, 0.041827f, 0.081551f, 0.008929f,
    -0.073358f, 0.053909f, -0.087362f, 0.071018f, 0.033470f, -0.082919f, 0.055651f, 0.075311f, -0.005028f, 0.009295f,
    0.052182f, 0.075408f, 0.020930f, 0.055380f, 0.002166f, -0.025105f, 0.034004f, -0.033843f, 0.085702f, -0.058649f,
    -0.027710f, -0.049686f, -0.053783f, 0.076986f, 0.080695f, 0.033198f, -0.061069f, 0.015575f, -0.013878f, 0.080957f,
    0.071219f, 0.069026f, 0.037357f, -0.031865f, -0.029380f, -0.043433f, 0.084513f, -0.001110f, 0.015334f, 0.025442f,
    0.067143f, 0.002426f, -0.079988f, 0.029261f, 0.030801f, 0.003299f, 0.039827f, 0.028435f, 0.063406f, 0.019651f,
    0.015146f, -0.050302f, 0.008103f, -0.018289f, 0.080334f, 0.053034f, 0.047764f, 0.077716f, -0.019935f, -0.071744f,
    0.008058f, -0.026503f, -0.031712f, 0.042155f, 0.022900f, -0.028992f, 0.072410f, 0.027678f, -0.000118f, -0.062529f,
    0.061284f, -0.013810f, 0.086980f, 0.072594f, 0.059856f, 0.041449f, 0.005636f, 0.052234f, -0.071827f, 0.079458f,
    0.070757f, 0.011489f, -0.005789f, 0.040349f, -0.007382f, -0.045606f, -0.047186f, -0.005313f, -0.075081f, -0.064173f,
    -0.015425f, 0.061753f, 0.012358f, 0.001535f, 0.047547f, 0.080085f, -0.006878f, 0.035862f, 0.015393f, 0.044351f,
    -0.042130f, -0.064745f, 0.015878f, -0.000552f, -0.087756f, -0.040443f, -0.078934f, 0.049914f, -0.014221f, -0.027956f,
    -0.019322f, 0.087191f, 0.015358f, 0.013816f, 0.026840f, 0.075142f, 0.085648f, -0.005399f, 0.072994f, -0.049974f,
    0.022949f, -0.077562f, -0.047434f, -0.014861f, 0.035728f, 0.000660f, 0.059700f, -0.000817f, 0.001866f, 0.024704f,
    0.062057f, -0.009704f, 0.033346f, -0.010198f, 0.041868f, 0.035005f, -0.036388f, -0.025681f, 0.079629f, 0.065171f,
    -0.076239f, 0.073810f, 0.059752f, 0.086915f, 0.083728f, -0.036438f, -0.077462f, -0.048468f, -0.057371f, -0.041306f,
    -0.041004f, -0.051532f, 0.041692f, 0.000845f, 0.059413f, 0.081447f, 0.025734f, 0.006341f, -0.076956f, -0.028230f,
    0.059017f, 0.061392f, -0.087967f, -0.052437f, -0.078150f, 0.043970f, -0.029178f, 0.002977f, -0.077935f, -0.063835f,
    -0.075070f, 0.051507f, 0.004393f, -0.026801f, -0.062301f, 0.074827f, 0.068507f, 0.070646f, 0.027155f, -0.057231f,
    -0.048942f, -0.037100f, -0.068959f, 0.031523f, 0.072893f, -0.034964f, 0.060693f, 0.002794f, -0.006392f, 0.020820f,
    -0.080413f, 0.054965f, 0.013699f, -0.064798f, -0.000755f, 0.059974f, -0.005732f, 0.045252f, 0.078682f, 0.024185f,
    -0.067630f, 0.056992f, -0.028648f, -0.043835f, -0.079118f, 0.085338f, 0.050178f, -0.016711f, -0.057895f, 0.082942f,
    -0.059604f, 0.065441f, -0.030654f, -0.035431f, -0.055502f, 0.033828f, 0.061401f, 0.066511f, -0.025609f, 0.054937f,
    -0.061981f, 0.040522f, 0.009860f, 0.067412f, 0.027001f, -0.010367f, 0.014435f, -0.007570f, 0.041346f, 0.071450f,
    0.020944f, 0.030240f, 0.003771f, 0.007569f, -0.056803f, -0.073225f, -0.052437f, 0.046534f, 0.083666f, -0.022119f,
    0.002760f, 0.063149f, 0.029082f, 0.083470f, 0.035805f, 0.053648f, 0.065235f, -0.029575f, 0.008070f, 0.036525f,
    0.045899f, -0.085204f, -0.016684f, -0.079613f, -0.047688f, 0.040347f, 0.042779f, 0.003574f, -0.016538f, 0.058352f,
    0.014006f, 0.054557f, 0.049829f, 0.033961f, 0.081570f, -0.046637f, 0.080629f, -0.033213f, 0.058496f, -0.043747f,
    0.026039f, 0.052695f, 0.050104f, 0.065778f, -0.067624f, -0.034699f, 0.059375f, 0.071085f, 0.070059f, -0.049138f,
    0.026011f, -0.056059f, -0.064690f, -0.034407f, -0.087851f, -0.058878f, 0.039513f, -0.060920f, -0.021034f, 0.074918f,
    -0.061876f, -0.008318f, 0.020658f, -0.030058f, -0.063595f, 0.082800f, 0.046169f, 0.057267f, 0.003331f, -0.025440f,
    -0.011262f, 0.030338f, 0.020705f, -0.016756f, 0.088113f, 0.077957f, 0.002977f, -0.078764f, 0.034950f, 0.069318f,
    0.077934f, -0.006827f, 0.024329f, 0.018764f, 0.040799f, 0.049522f, 0.039889f, -0.087052f, 0.058834f, -0.030075f,
    -0.029446f, -0.033860f, -0.028881f, -0.040554f, -0.075093f, -0.004098f, 0.076813f, 0.017891f, 0.061680f, 0.067583f,
    0.086710f, 0.012557f, 0.044386f, 0.055574f, -0.086231f, -0.055159f, 0.042750f, -0.071469f, -0.059034f, -0.041595f,
    -0.048225f, -0.017455f, -0.058194f, 0.079935f, -0.022867f, -0.063935f, -0.049576f, 0.012022f, 0.067516f, -0.053887f,
    -0.043727f, -0.081343f, -0.082684f, 0.042890f, -0.061664f, 0.004730f, 0.073382f, -0.064026f, 0.044404f, -0.069443f,
    -0.066298f, 0.008108f, 0.028596f, -0.080816f, -0.077295f, -0.034832f, -0.032676f, -0.023198f, 0.050878f, 0.024086f,
    -0.067142f, 0.079104f, 0.015751f, 0.070262f, -0.083510f, -0.014521f, 0.066833f, 0.072063f, 0.018272f, -0.058879f,
    -0.057321f, -0.061903f, -0.032657f, -0.001103f, -0.051682f, -0.086301f, -0.019470f, -0.020906f, 0.009736f, -0.028435f,
    -0.065712f, -0.015487f, -0.067625f, 0.034960f, 0.008268f, 0.056440f, 0.018600f, -0.067450f, -0.004466f, 0.001008f,
    0.061518f, -0.075005f, -0.035939f, -0.084621f, -0.008681f, 0.029556f, 0.070381f, 0.074046f, 0.037237f, -0.024554f,
    0.026100f, 0.017507f, 0.059601f, 0.046755f, 0.086678f, -0.040789f, -0.039865f, -0.039772f, -0.068749f, 0.071205f,
    0.038028f, -0.079821f, 0.033639f, 0.037145f, 0.032073f, 0.026898f, -0.032862f, 0.006618f, -0.046600f, 0.037518f,
    -0.061205f, 0.022654f, -0.005943f, -0.020599f, 0.033617f, 0.065776f, 0.078717f, -0.026594f, -0.023880f, -0.073512f,
    0.035920f, 0.002003f, -0.065573f, 0.057965f, 0.034747f, 0.050933f, 0.074519f, -0.031125f, -0.075728f, 0.004566f,
    0.034928f, -0.049166f, -0.038755f, -0.020885f, -0.041746f, 0.027480f, 0.048020f, -0.080741f, 0.008588f, 0.060312f,
    0.084719f, 0.007223f, 0.012233f, -0.016704f, -0.023023f, -0.040764f, -0.056822f, 0.027183f, -0.006700f, -0.036403f,
    -0.069284f, 0.025837f, -0.075165f, -0.082533f, 0.044707f, 0.077587f, -0.030933f, 0.047637f, -0.010484f, 0.072588f,
    0.080649f, -0.074134f, 0.077635f, 0.058783f, -0.059069f, -0.063853f, 0.011727f, 0.032437f, 0.051412f, -0.000406f,
    -0.084570f, -0.024812f, -0.042199f, -0.009098f, -0.076907f, 0.058094f, 0.084099f, -0.070771f, -0.023763f, -0.079213f,
    0.071432f, 0.058846f, -0.014065f, -0.072208f, 0.054610f, 0.042392f, -0.087556f, -0.051135f, -0.017659f, 0.025617f,
    -0.031042f, -0.069563f, 0.084002f, 0.000555f, 0.017546f, -0.019743f, -0.082922f, -0.002837f, 0.028561f, 0.056295f,
    -0.029883f, 0.075392f, 0.077928f, -0.067012f, 0.001792f, -0.073676f, -0.043490f, -0.034396f, -0.012359f, 0.027981f,
    0.002468f, 0.056945f, 0.060576f, 0.067236f, -0.084522f, 0.072766f, -0.029762f, 0.047163f, 0.016720f, -0.032276f,
    0.044074f, -0.064097f, -0.082613f, -0.035170f, -0.021177f, -0.022961f, 0.030874f, -0.068010f, -0.062271f, 0.005915f,
    -0.022507f, -0.037680f, 0.000796f, 0.078534f, -0.027459f, -0.014434f, 0.012593f, 0.017937f, 0.058948f, 0.072720f,
    -0.013969f, -0.004599f, -0.004459f, -0.087819f, -0.036498f, 0.076956f, -0.007239f, -0.037996f, -0.008981f, -0.035579f,
    0.026351f, 0.034224f, -0.050516f, -0.004733f, -0.027952f, -0.018223f, 0.019771f, -0.074639f, 0.034475f, -0.064569f,
    -0.009799f, 0.038294f, 0.054655f, -0.083052f, 0.074861f, 0.006415f, -0.084236f, 0.029609f, 0.081354f, -0.035666f,
    -0.071341f, 0.040135f, -0.083785f, -0.005840f, -0.065754f, 0.069133f, -0.000852f, -0.005360f, 0.018337f, -0.007272f,
    0.017944f, -0.075818f, 0.039169f, 0.069093f, -0.054972f, 0.019716f, 0.043281f, -0.076087f, -0.085905f, 0.008207f,
    -0.083037f, -0.062810f, -0.054390f, 0.036660f, -0.035951f, -0.083789f, -0.079495f, 0.015636f, 0.035476f, -0.044706f,
    0.021301f, -0.060221f, 0.026654f, -0.014770f, -0.050258f, 0.046814f, 0.016114f, -0.071086f, 0.022513f, -0.080652f,
    -0.014573f, -0.062687f, -0.035367f, -0.008468f, -0.008506f, -0.084803f, 0.049975f, -0.047505f, -0.019933f, 0.039777f,
    -0.023939f, -0.064677f, 0.007033f, 0.011122f, 0.008557f, -0.038841f, 0.000249f, -0.035925f, 0.086420f, 0.069486f,
    -0.045008f, 0.013120f, -0.035942f, 0.073152f, -0.015891f, -0.056247f, -0.075290f, 0.030797f, 0.052993f, 0.005979f,
    -0.032437f, 0.072323f, 0.082008f, 0.003854f, -0.009487f, -0.079941f, 0.043568f, -0.010842f, -0.006077f, -0.022550f,
    -0.072136f, -0.013399f, 0.041490f, -0.000156f, -0.070331f, -0.005494f, 0.017078f, 0.032506f, -0.081170f, 0.073387f,
    -0.015273f, -0.009256f, 0.061809f, 0.011542f, -0.029421f, -0.052783f, -0.061915f, -0.069785f, 0.013080f, -0.052407f,
    0.013769f, 0.072568f, -0.084485f, -0.045716f, 0.055227f, 0.010492f, 0.047706f, 0.081029f, 0.061935f, -0.058121f,
    -0.061750f, -0.086447f, 0.043058f, -0.034960f, 0.013656f, 0.068720f, -0.054646f, 0.067882f, -0.000635f, -0.084560f,
    0.070819f, 0.075181f, 0.046939f, -0.084986f, -0.019894f, 0.030751f, 0.030335f, -0.052095f, 0.046306f, 0.017548f,
    0.006522f, -0.036937f, -0.072426f, -0.016745f, 0.063587f, 0.041939f, 0.082186f, -0.083843f, 0.060724f, 0.011416f,
    0.027386f, -0.056608f, -0.040445f, 0.073976f, -0.032577f, -0.069742f, -0.006454f, -0.002874f, 0.045931f, 0.065289f,
    0.079309f, -0.023301f, 0.008438f, -0.068593f, 0.074068f, 0.061597f, -0.061943f, -0.079793f, -0.014881f, -0.017011f,
    0.006098f, -0.001489f, -0.045558f, -0.061343f, -0.072674f, 0.041114f, -0.018456f, 0.017789f, 0.019454f, -0.026501f,
    -0.050212f, -0.024610f, 0.048013f, 0.047312f, 0.001697f, -0.069101f, -0.085944f, -0.002733f, 0.035582f, -0.025564f,
    -0.075467f, -0.027462f, 0.076050f, 0.080434f, -0.067699f, -0.077603f, -0.087401f, -0.012780f, -0.057431f, -0.076992f,
    0.014122f, -0.034616f, 0.044447f, -0.004238f, 0.043831f, 0.067402f, 0.079730f, -0.041378f, -0.063870f, 0.016908f,
    -0.024873f, -0.071601f, 0.051895f, 0.087883f, -0.050202f, 0.028025f, -0.009384f, 0.029113f, 0.000196f, 0.016219f,
    -0.077772f, -0.021415f, -0.045448f, 0.068784f, 0.011840f, -0.033578f, -0.016422f, -0.064905f, 0.049751f, -0.070996f,
    0.073894f, 0.033871f, 0.083001f, 0.040046f, 0.002145f, -0.005910f, -0.019984f, -0.038450f, 0.000462f, 0.053298f,
    -0.002739f, 0.007670f, -0.042258f, -0.050272f, 0.033535f, 0.076967f, -0.055566f, 0.083117f, 0.063714f, 0.033951f,
    -0.024879f, 0.076763f, -0.005122f, -0.057448f, -0.081346f, -0.018570f, 0.053241f, -0.040744f, 0.010071f, -0.042575f,
    0.033757f, 0.013276f, 0.004203f, -0.056330f, 0.074480f, -0.082094f, -0.071950f, 0.042117f, 0.040989f, -0.068561f,
    0.042020f, -0.038073f, -0.024795f, -0.041154f, -0.056111f, -0.077677f, -0.001374f, 0.041601f, -0.020511f, 0.038819f,
    0.010312f, -0.070261f, 0.068119f, 0.075517f, -0.001006f, -0.010667f, -0.066299f, -0.006688f, -0.080142f, 0.061885f,
    -0.035980f, 0.036155f, 0.031771f, 0.078826f, 0.009825f, -0.068658f, 0.086191f, 0.085563f, 0.086597f, -0.045253f,
    0.070207f, 0.044549f, 0.000138f, 0.085536f, 0.054262f, -0.014613f, -0.059539f, 0.042539f, 0.042754f, 0.036636f,
    0.074220f, -0.073118f, -0.031320f, -0.075283f, 0.064129f, -0.000061f, -0.051078f, -0.004004f, -0.034433f, -0.043740f,
    -0.039801f, 0.080097f, -0.030608f, 0.009753f, -0.018454f, 0.041240f, 0.075958f, -0.085867f, 0.078672f, 0.059222f,
    -0.060607f, 0.021626f, -0.011555f, -0.031431f, -0.008631f, -0.065450f, -0.030793f, 0.072673f, 0.067733f, -0.071039f,
    -0.064515f, 0.065233f, -0.009298f, -0.060851f, -0.073446f, 0.065414f, -0.044615f, 0.003628f, -0.067060f, -0.034042f,
    0.085656f, 0.052146f, 0.008128f, 0.050862f, 0.018963f, -0.039452f, -0.049340f, 0.027642f, 0.010146f, 0.057173f,
    -0.077218f, 0.073695f, -0.000603f, -0.035719f, -0.014910f, -0.015029f, 0.004374f, 0.084566f, -0.081884f, -0.080268f,
    0.040064f, 0.076998f, -0.049342f, 0.046887f, -0.028192f, 0.070466f, -0.083604f, 0.047428f, 0.086203f, 0.077747f,
    0.043378f, -0.040837f, 0.031490f, 0.015008f, 0.087238f, -0.037857f, -0.082328f, 0.015438f, -0.085080f, -0.050518f,
    -0.057130f, -0.071547f, -0.009677f, 0.086258f, -0.028213f, 0.042729f, 0.063574f, -0.059293f, -0.036934f, -0.015930f,
    -0.081913f, -0.002558f, 0.029990f, 0.051842f, 0.023746f, 0.017177f, 0.053860f, 0.061966f, 0.022909f, 0.039961f,
    -0.043232f, 0.029117f, -0.039082f, 0.000265f, -0.057346f, 0.014627f, -0.079936f, -0.006358f, -0.009895f, -0.030844f,
    -0.082714f, -0.027758f, 0.016555f, -0.039077f, -0.086133f, -0.063640f, 0.010028f, 0.069825f, -0.065321f, -0.082866f,
    -0.028565f, -0.087959f, -0.075675f, 0.059178f, 0.037898f, -0.045099f, 0.011607f, 0.044042f, -0.056633f, 0.051579f,
    -0.007096f, -0.074340f, 0.025226f, 0.064957f, -0.087215f, -0.057404f, 0.016337f, -0.028319f, -0.053497f, 0.055990f,
    -0.035402f, -0.051668f, -0.017272f, -0.073961f, 0.032733f, 0.055454f, -0.044431f, 0.080426f, -0.065337f, -0.056072f,
    -0.066433f, -0.036417f, -0.041735f, 0.031135f, -0.035754f, 0.026770f, 0.052430f, -0.080340f, -0.011914f, -0.021826f,
    0.029096f, 0.033097f, 0.065640f, 0.077730f, 0.025294f, -0.075739f, 0.008869f, 0.006515f, -0.083914f, 0.010225f,
    -0.045509f, 0.038858f, 0.024705f, 0.077262f, 0.049627f, 0.037611f, -0.079193f, 0.022206f, 0.036845f, -0.046055f,
    0.035808f, 0.027093f, -0.066407f, 0.053234f, -0.052101f, -0.079957f, -0.002361f, -0.053843f, 0.060985f, -0.082054f,
    -0.028547f, -0.015623f, -0.013549f, -0.065316f, -0.048027f, 0.043129f, -0.087478f, -0.047501f, 0.021956f, 0.040662f,
    0.065007f, -0.046902f, 0.038851f, 0.017973f, 0.065133f, -0.025817f, -0.045931f, -0.025098f, 0.018645f, -0.052272f,
    -0.056588f, 0.014389f, -0.040942f, -0.057119f, 0.062006f, 0.047651f, 0.066814f, -0.035264f, 0.000510f, -0.063973f,
    0.012087f, -0.070136f, -0.055701f, -0.064734f, -0.036624f, 0.078589f, 0.037015f, -0.015533f, -0.038710f, -0.044237f,
    0.003774f, -0.024153f, 0.081407f, -0.040153f, -0.060270f, -0.070482f, -0.076228f, 0.077778f, 0.074201f, -0.036739f,
    0.005961f, 0.025071f, -0.000618f, -0.025857f, 0.032421f, -0.066478f, -0.012106f, 0.012598f, -0.029948f, -0.072497f,
    0.026715f, 0.085105f, -0.026931f, -0.071149f, 0.033502f, 0.066426f, 0.067497f, -0.006617f, 0.053122f, -0.014325f,
    0.037091f, -0.019922f, -0.007777f, 0.086457f, 0.077865f, -0.017412f, -0.006110f, -0.051731f, -0.064352f, 0.028990f,
    0.084391f, -0.031655f, 0.044651f, -0.055477f, 0.049811f, 0.009666f, -0.022026f, -0.052768f, -0.072931f, -0.067380f,
    -0.074972f, -0.031183f, 0.020166f, 0.027138f, 0.016299f, -0.077047f, -0.068302f, -0.030104f, -0.002779f, 0.080692f,
    -0.070162f, 0.086302f, 0.051255f, 0.027863f, 0.076724f, -0.054325f, -0.027886f, 0.037962f, -0.058305f, -0.043782f,
    -0.075267f, -0.030263f, 0.012861f, 0.072474f, -0.003245f, -0.058942f, 0.074347f, -0.018942f, -0.039998f, 0.009863f,
    0.005191f, 0.066128f, 0.071868f, 0.019429f, 0.069727f, -0.064819f, 0.058129f, 0.040381f, 0.017382f, -0.029018f,
    -0.006421f, -0.045415f, -0.076350f, -0.000766f, -0.038153f, -0.011711f, -0.040727f, 0.039122f, 0.051545f, 0.063573f,
    0.040135f, -0.065628f, 0.022898f, -0.049138f, -0.053288f, -0.086256f, -0.025884f, 0.014379f, -0.018462f, -0.011422f,
    0.018527f, -0.055252f, -0.021806f, -0.002311f, -0.013183f, 0.037137f, 0.080305f, -0.030737f, 0.061282f, -0.005893f,
    0.063275f, -0.058207f, 0.077532f, 0.037336f, 0.027109f, 0.051282f, 0.086156f, 0.077434f, -0.051437f, 0.075581f,
    0.017598f, -0.033299f, -0.020304f, -0.042165f, 0.004637f, -0.007007f, 0.067191f, -0.050978f, 0.046297f, 0.033510f,
    -0.026952f, -0.043954f, -0.058521f, -0.036589f, -0.048893f, 0.023908f, 0.005579f, 0.073380f, 0.064443f, -0.085216f,
    0.057825f, -0.038333f, -0.077984f, -0.074656f, 0.033301f, 0.049369f, -0.085689f, 0.028594f, 0.047931f, -0.045051f,
    -0.046515f, -0.056509f, -0.035986f, -0.054397f, 0.040011f, 0.067581f, 0.018725f, -0.042493f, 0.079642f, 0.008953f,
    -0.060401f, -0.062835f, -0.036718f, -0.021345f, -0.057385f, 0.001324f, 0.030079f, -0.000274f, 0.075792f, -0.027293f,
    -0.051501f, 0.082789f, -0.063021f, -0.083158f, -0.040509f, -0.009052f, -0.048196f, 0.041699f, 0.016064f, 0.050393f,
    0.062615f, 0.025337f, 0.035236f, -0.038658f, -0.041921f, -0.075556f, -0.034221f, 0.026681f, -0.056854f, -0.029843f,
    0.082825f, -0.051907f, -0.040663f, -0.074794f, 0.041890f, -0.065714f, -0.012309f, 0.036126f, 0.027073f, 0.020176f,
    -0.022226f, 0.038194f, -0.087390f, -0.050897f, 0.063561f, 0.008459f, -0.073564f, 0.045250f, -0.036901f, 0.010019f,
    -0.009154f, -0.076288f, -0.044632f, 0.058675f, 0.009010f, 0.036550f, 0.068089f, 0.020877f, 0.011171f, 0.034785f,
    -0.001612f, 0.069655f, -0.070231f, -0.036954f, -0.021873f, 0.029849f, 0.003258f, 0.024242f, -0.019974f, -0.037388f,
    0.050101f, 0.070383f, -0.074634f, 0.062415f, 0.060586f, 0.032459f, -0.038176f, -0.035212f, 0.087288f, -0.072518f,
    -0.076913f, -0.033763f, 0.047306f, -0.046406f, -0.040038f, -0.086835f, -0.081945f, 0.014167f, 0.073157f, 0.061702f,
    0.015563f, -0.013276f, -0.004473f, 0.069183f, 0.055865f, -0.025778f, -0.050054f, 0.018407f, -0.047581f, 0.059196f,
    -0.085072f, 0.020570f, -0.023097f, -0.082746f, 0.061311f, 0.087538f, -0.051319f, -0.078647f, 0.086407f, 0.064242f,
    -0.009447f, -0.073378f, -0.073788f, -0.004785f, 0.041468f, 0.069482f, -0.084769f, 0.013329f, 0.009590f, -0.020484f,
    -0.040415f, -0.084076f, -0.033220f, -0.082961f, -0.014628f, 0.079558f, 0.035561f, -0.030837f, -0.005989f, 0.040287f,
    0.061854f, -0.085063f, 0.047329f, 0.075024f, 0.056613f, 0.085298f, 0.061431f, 0.002209f, 0.065519f, 0.073665f,
    -0.081000f, -0.048510f, -0.054653f, -0.031991f, 0.017183f, 0.083685f, 0.050801f, 0.062336f, 0.003935f, -0.052041f,
    0.057218f, 0.059996f, 0.067009f, 0.065428f, -0.027614f, 0.001987f, 0.034800f, -0.037371f, 0.081429f, -0.023006f,
    0.068400f, 0.033040f, 0.088268f, 0.022795f, -0.053833f, 0.032989f, 0.032118f, -0.047803f, -0.024291f, 0.079867f,
    -0.004675f, -0.060871f, 0.065659f, 0.018510f, 0.005937f, 0.031792f, 0.007924f, -0.007552f, -0.065039f, 0.014918f,
    -0.071490f, 0.052607f, -0.020131f, -0.040826f, 0.078141f, -0.001585f, 0.045777f, -0.008567f, -0.042198f, -0.061848f,
    0.084534f, -0.005840f, 0.003893f, 0.088029f, 0.039686f, -0.006560f, 0.004426f, -0.082283f, -0.031740f, 0.027396f,
    0.056190f, -0.069088f, 0.049516f, -0.064102f, -0.048370f, 0.030918f, 0.007193f, -0.004941f, 0.017453f, -0.064802f,
    -0.052387f, -0.016864f, -0.079909f, 0.014208f, -0.038154f, 0.030297f, -0.020990f, 0.071643f, -0.001682f, -0.002593f,
    -0.002373f, -0.014697f, -0.057724f, 0.079007f, 0.021061f, -0.025583f, -0.063526f, 0.053432f, -0.058621f, 0.062218f,
    -0.031842f, -0.044451f, -0.041601f, -0.005557f, 0.001675f, -0.068783f, -0.044798f, -0.042453f, 0.021130f, -0.028286f,
    -0.017191f, -0.003886f, 0.022446f, -0.069121f, 0.055042f, -0.047170f, 0.039535f, -0.022704f, 0.034968f, 0.053085f,
    -0.001019f, -0.043117f, 0.002669f, -0.073985f, -0.024642f, 0.055584f, 0.016078f, -0.077019f, -0.000567f, -0.067585f,
    -0.009926f, -0.031523f, 0.021968f, 0.061381f, -0.024790f, -0.078792f, 0.073335f, 0.026390f, 0.067908f, -0.075589f,
    -0.062968f, 0.054465f, -0.050182f, 0.016738f, -0.073669f, -0.026439f, -0.086198f, -0.061700f, 0.002040f, -0.030767f,
    -0.034192f, -0.079068f, -0.053136f, -0.044231f, -0.041117f, -0.018375f, 0.079924f, -0.050702f, -0.063818f, 0.056309f,
    0.079238f, -0.041239f, -0.012560f, 0.054235f, -0.004263f, 0.025779f, -0.065858f, 0.082536f, 0.073174f, -0.027973f,
    -0.043929f, -0.018065f, -0.011921f, -0.004505f, -0.022970f, -0.080304f, -0.016113f, 0.022762f, -0.010721f, -0.052662f,
    0.031533f, 0.053509f, 0.056891f, -0.014016f, 0.054485f, 0.039708f, -0.086683f, 0.057797f, 0.049857f, -0.018318f,
    -0.029127f, 0.053272f, 0.030090f, -0.079231f, -0.053797f, -0.041363f, 0.063791f, 0.017729f, 0.044331f, 0.005687f,
    0.068309f, -0.030066f, -0.063203f, -0.032036f, 0.066952f, 0.065770f, 0.035162f, 0.076608f, 0.081930f, 0.021463f,
    -0.076484f, -0.049293f, -0.062507f, -0.033155f, 0.004633f, -0.017551f, -0.071456f, -0.025632f, -0.005423f, -0.059344f,
    -0.057830f, -0.022719f, 0.072856f, -0.058914f, 0.015182f, 0.018953f, -0.045338f, -0.085097f, -0.000647f, -0.046030f,
    0.047737f, 0.019169f, -0.046243f, -0.081851f, -0.053801f, -0.039762f, -0.016348f, 0.075492f, -0.047496f, 0.060598f,
    -0.025285f, 0.070585f, 0.076595f, 0.062214f, -0.086311f, 0.045718f, 0.064374f, -0.042638f, 0.068754f, -0.021614f,
    0.028636f, -0.055301f, 0.015671f, -0.065043f, -0.015406f, -0.000837f, 0.016710f, 0.064402f, -0.042637f, -0.009311f,
    -0.026027f, -0.049208f, -0.010399f, -0.010553f, 0.017427f, -0.039251f, 0.032971f, -0.063981f, 0.081950f, -0.031376f,
    0.079029f, -0.079750f, 0.053586f, -0.025237f, -0.007856f, 0.002839f, -0.083347f, 0.067906f, -0.073816f, -0.069235f,
    -0.038943f, -0.037227f, 0.005095f, 0.037668f, -0.069191f, 0.068847f, -0.034176f, 0.049473f, -0.065425f, 0.047635f,
    0.084408f, -0.036932f, 0.026018f, -0.030609f, 0.065467f, 0.052730f, 0.049803f, 0.046031f, -0.010606f, 0.008979f,
    0.036190f, 0.026350f, -0.080238f, 0.051943f, 0.018970f, 0.007837f, -0.022114f, -0.060720f, -0.058414f, -0.071852f,
    0.086580f, -0.055163f, 0.083873f, -0.031791f, -0.011541f, 0.018802f, -0.071576f, 0.004581f, -0.022693f, -0.024969f,
    0.004488f, -0.036048f, 0.082140f, 0.000600f, 0.009657f, -0.076028f, 0.077014f, 0.082660f, 0.003865f, -0.019884f,
    0.002233f, -0.006373f, -0.000828f, 0.052536f, 0.085284f, -0.047200f, -0.054489f, 0.021044f, -0.029281f, 0.038864f,
    -0.053480f, -0.002253f, -0.062485f, 0.086394f, -0.072016f, 0.080026f, -0.086449f, -0.067554f, 0.060841f, 0.071202f,
    -0.020131f, 0.008115f, -0.000982f, -0.019915f, -0.001287f, -0.020000f, 0.013309f, 0.076742f, 0.014434f, 0.078331f,
    -0.059365f, 0.058951f, -0.070611f, 0.038794f, 0.046777f, -0.053071f, -0.010365f, 0.003581f, 0.035637f, 0.051499f,
    0.083779f, 0.011189f, 0.027731f, -0.070916f, -0.010564f, -0.072249f, 0.065201f, -0.066595f, -0.082245f, -0.063658f,
    0.001019f, 0.049391f, -0.080222f, -0.075204f, 0.051398f, -0.056308f, 0.010901f, -0.053364f, -0.011648f, -0.069405f,
    -0.054265f, 0.055809f, 0.036208f, -0.007672f, -0.035541f, 0.026988f, 0.036764f, 0.033521f, 0.002848f, -0.021556f,
    0.082416f, 0.022692f, 0.023122f, 0.073184f, 0.048226f, -0.062365f, -0.076657f, -0.067060f, -0.085271f, 0.036949f,
    -0.051826f, -0.005639f, -0.052080f, 0.053478f, 0.001361f, -0.063422f, 0.056747f, 0.019537f, 0.068895f, -0.017660f,
    0.075831f, -0.001882f, 0.077028f, 0.085002f, 0.044309f, -0.019413f, -0.029858f, -0.024407f, 0.014319f, -0.002603f,
    0.015164f, 0.047871f, -0.048850f, -0.038784f, 0.026842f, -0.062533f, 0.045370f, 0.085598f, 0.048800f, 0.084454f,
    -0.062075f, 0.038518f, 0.085566f, -0.052924f, -0.013250f, 0.002899f, 0.075716f, 0.066483f, 0.074677f, 0.036631f,
    -0.035907f, 0.046608f, -0.042496f, 0.031224f, 0.086511f, 0.002450f, -0.084332f, 0.081120f, -0.070492f, -0.039307f,
    -0.079800f, 0.024109f, 0.002796f, -0.038957f, 0.033075f, -0.035450f, 0.006877f, 0.040158f, -0.069638f, -0.009945f,
    -0.065619f, -0.075390f, -0.001723f, -0.005726f, 0.029095f, 0.026641f, -0.040120f, -0.038097f, 0.025083f, 0.073229f,
    0.073559f, 0.081046f, -0.013960f, -0.081658f, -0.018946f, 0.023914f, 0.079298f, 0.076733f, 0.022817f, 0.078226f,
    0.047121f, -0.013218f, 0.013702f, -0.043679f, 0.069897f, -0.071886f, 0.084343f, 0.008898f, -0.000108f, -0.082241f,
    -0.060687f, -0.071727f, 0.030055f, 0.069452f, 0.080455f, -0.007490f, -0.006482f, 0.045168f, 0.005299f, 0.040065f,
    -0.085652f, -0.060039f, 0.012398f, -0.056793f, 0.000848f, -0.075261f, 0.046079f, -0.069937f, -0.028820f, -0.062726f,
    -0.020392f, -0.067911f, -0.074829f, -0.034606f, 0.023196f, 0.004220f, -0.026930f, -0.024124f, -0.061435f, 0.081099f,
    0.056959f, 0.083706f, 0.070260f, 0.013895f, 0.047702f, 0.059835f, -0.023463f, -0.065147f, 0.022333f, -0.066863f,
    0.055164f, 0.000810f, -0.059638f, 0.023517f, -0.087078f, -0.061497f, -0.081942f, -0.071803f, -0.054431f, 0.073442f,
    -0.011894f, -0.027834f, 0.027377f, 0.018971f, -0.084467f, 0.037015f, -0.043669f, 0.017029f, -0.022798f, -0.011798f,
    -0.073454f, -0.023481f, -0.082711f, 0.002978f, 0.084925f, -0.079778f, 0.042284f, -0.034047f, -0.065253f, 0.014346f,
    -0.013905f, -0.015134f, -0.020454f, 0.084957f, 0.068698f, 0.024459f, 0.035375f, -0.015818f, 0.020342f, -0.006232f,
    0.039257f, -0.079162f, -0.009551f, 0.085470f, -0.086284f, 0.077512f, -0.058754f, 0.024273f, -0.083125f, 0.068533f,
    0.061773f, 0.077134f, -0.058600f, 0.081431f, 0.038953f, -0.078831f, -0.031030f, 0.042246f, 0.087384f, 0.054010f,
    -0.057902f, -0.026311f, 0.077384f, 0.026481f, -0.059398f, -0.033574f, 0.004979f, -0.070698f, 0.063557f, -0.036248f,
    -0.000509f, -0.075235f, 0.047746f, 0.064664f, 0.084492f, -0.046192f, -0.030423f, -0.075754f, 0.087667f, 0.053492f,
    -0.057395f, 0.016059f, -0.041809f, 0.058062f, 0.069901f, 0.030672f, -0.084699f, -0.012162f, 0.059284f, 0.086679f,
    -0.014833f, 0.047776f, 0.033299f, -0.009962f, -0.052624f, -0.034221f, -0.070633f, -0.020485f, 0.081352f, 0.027471f,
    -0.058144f, -0.047845f, 0.047232f, -0.053842f, 0.034658f, 0.066261f, -0.037690f, 0.012667f, -0.018608f, 0.063025f,
    -0.044213f, 0.008922f, -0.072888f, 0.044661f, -0.037759f, 0.041315f, 0.066974f, -0.001745f, -0.023724f, -0.070893f,
    -0.055417f, -0.043797f, -0.024598f, 0.029541f, -0.079527f, 0.009647f, 0.080047f, 0.037852f, 0.035675f, 0.082750f,
    0.022435f, -0.067874f, 0.044442f, -0.041128f, -0.043869f, 0.067373f, -0.055393f, 0.050959f, 0.016388f, 0.063767f,
    -0.010758f, -0.024117f, -0.035425f, -0.068487f, 0.012819f, -0.030889f, 0.074806f, -0.002633f, 0.032106f, 0.078759f,
    0.011977f, 0.067578f, 0.017811f, 0.071865f, 0.030113f, 0.045384f, -0.007750f, 0.028539f, -0.009702f, -0.072784f,
    0.002672f, 0.067819f, 0.040618f, 0.088118f, 0.025368f, -0.007923f, 0.050663f, -0.022806f, 0.012140f, 0.029025f,
    0.068880f, -0.065184f, 0.033489f, 0.006531f, 0.014057f, 0.039602f, -0.070776f, -0.002387f, -0.055625f, 0.010444f,
    -0.042736f, -0.050912f, -0.088268f, -0.008138f, 0.050666f, -0.001523f, -0.003940f, -0.075358f, -0.062882f, 0.005124f,
    -0.037801f, -0.056883f, 0.081167f, 0.063518f, -0.014211f, 0.056110f, 0.037116f, -0.069069f, -0.085724f, 0.033950f,
    0.010790f, 0.041596f, 0.043911f, 0.053994f, 0.069506f, -0.087635f, -0.073504f, -0.078039f, -0.025986f, 0.009187f,
    -0.026223f, -0.065683f, -0.083188f, 0.048903f, 0.075862f, -0.034171f, 0.012931f, 0.015184f, 0.015245f, 0.039606f,
    -0.049763f, -0.067180f, 0.038528f, 0.079803f, 0.045058f, 0.052669f, -0.024232f, -0.056778f, -0.067528f, 0.047037f,
    0.063601f, 0.084053f, 0.043376f, -0.061128f, 0.006257f, 0.033999f, -0.049432f, -0.024936f, -0.067800f, 0.001416f,
    -0.079325f, 0.035964f, 0.013211f, -0.034281f, -0.086761f, 0.051590f, -0.055486f, -0.026024f, 0.076480f, 0.035994f,
    -0.083173f, -0.001858f, -0.058825f, -0.085067f, 0.082571f, -0.043484f, -0.006562f, -0.004198f, -0.064266f, 0.051928f,
    0.056359f, -0.070589f, -0.020754f, -0.068965f, -0.053828f, 0.082831f, 0.087794f, -0.022898f, 0.048890f, 0.086632f,
    0.024502f, 0.064832f, 0.007343f, 0.081274f, -0.028923f, -0.049365f, -0.072172f, 0.056530f, -0.045505f, 0.028343f,
    -0.019749f, 0.082228f, -0.050751f, -0.070941f, 0.039025f, -0.063667f, -0.059718f, 0.030866f, -0.042753f, 0.016688f,
    0.074994f, 0.005429f, -0.083501f, -0.016551f, 0.067811f, 0.033273f, -0.067995f, 0.019514f, -0.061388f, 0.031377f,
    -0.031458f, -0.031816f, -0.023416f, 0.028402f, 0.063207f, 0.049646f, 0.011149f, -0.007910f, -0.078215f, 0.000080f,
    -0.040244f, 0.027551f, -0.026004f, 0.013596f, -0.072678f, 0.066785f, 0.055914f, 0.009510f, 0.038363f, -0.056994f,
    0.079792f, 0.087375f, 0.013806f, -0.005804f, 0.026844f, 0.027744f, 0.031870f, 0.061547f, -0.067621f, 0.032686f,
    -0.030757f, 0.043206f, 0.003800f, 0.078094f, -0.054063f, 0.053786f, 0.045873f, 0.084972f, -0.034540f, 0.081156f,
    0.068004f, -0.023507f, 0.032565f, 0.006165f, -0.067738f, 0.007025f, 0.033446f, -0.081800f, -0.063597f, -0.067512f,
    -0.034228f, -0.056098f, -0.010692f, -0.073201f, -0.062560f, -0.032568f, -0.075919f, 0.035114f, 0.010633f, 0.070770f,
    0.014521f, -0.006593f, -0.060880f, -0.081153f, -0.013694f, 0.013337f, 0.045609f, -0.012764f, 0.051776f, 0.021990f,
    0.086598f, 0.071585f, 0.001072f, -0.075860f, -0.028924f, -0.003418f, -0.085945f, -0.075757f, -0.016687f, -0.056858f,
    -0.028427f, -0.063343f, 0.033972f, -0.042676f, 0.061164f, 0.009196f, 0.055578f, 0.023940f, -0.073811f, -0.005372f,
    0.023082f, 0.070883f, -0.059354f, -0.010941f, 0.035503f, -0.086527f, 0.040200f, -0.042978f, -0.029953f, 0.050580f,
    -0.042099f, 0.001864f, -0.036006f, -0.058806f, -0.080525f, -0.065183f, 0.084291f, -0.017466f, 0.083301f, 0.049556f,
    0.023343f, 0.007292f, -0.030458f, -0.063032f, -0.049657f, -0.049703f, -0.061972f, -0.027278f, 0.053892f, 0.020770f,
    -0.068918f, 0.068868f, 0.041609f, -0.052387f, 0.022891f, 0.019038f, 0.070196f, 0.068302f, -0.042072f, 0.078026f,
    -0.067496f, 0.077272f, -0.038680f, 0.085936f, 0.022125f, 0.020312f, 0.006958f, -0.036403f, -0.087433f, 0.074288f,
    0.064894f, 0.040519f, 0.057534f, 0.030629f, 0.010231f, 0.024236f, -0.075249f, -0.043546f, 0.074124f, 0.086316f,
    0.011295f, 0.041977f, 0.060599f, 0.072840f, 0.024422f, -0.086790f, -0.064518f, 0.053089f, 0.001609f, 0.031355f,
    0.001516f, -0.081325f, 0.043672f, 0.074978f, -0.078225f, 0.017149f, 0.083943f, -0.058151f, -0.024175f, 0.035641f,
    -0.069493f, -0.078510f, 0.000286f, 0.048584f, 0.012479f, -0.064602f, 0.018387f, -0.079165f, -0.036038f, -0.015036f,
    -0.063431f, 0.045215f, -0.049965f, -0.007549f, 0.064189f, -0.060378f, 0.076793f, -0.074191f, 0.066910f, -0.015771f,
    0.010008f, 0.055301f, 0.002449f, 0.069690f, 0.075407f, -0.041357f, -0.087247f, 0.015554f, 0.023827f, 0.035161f,
    -0.025376f, 0.078880f, -0.087608f, 0.076749f, -0.007260f, 0.021490f, -0.058593f, 0.064619f, 0.010984f, 0.002812f,
    0.058337f, 0.031548f, -0.059714f, 0.029460f, -0.041849f, -0.075932f, 0.029806f, -0.045522f, 0.061337f, -0.045986f,
    0.012213f, -0.047782f, 0.083467f, 0.052309f, 0.019137f, -0.077876f, 0.061063f, -0.041087f, -0.069319f, -0.087356f,
    0.002074f, -0.011743f, -0.065795f, 0.031735f, -0.055605f, 0.064888f, 0.028907f, -0.082831f, 0.009872f, -0.083220f,
    0.083473f, 0.070284f, -0.083113f, 0.077289f, 0.064516f, 0.030252f, 0.035691f, 0.029873f, -0.086789f, 0.073316f,
    -0.037886f, 0.034008f, -0.010284f, 0.088144f, 0.058568f, -0.023224f, 0.084758f, -0.031337f, -0.028330f, 0.022585f,
    -0.047910f, 0.065438f, 0.024223f, 0.023638f, 0.049251f, -0.055238f, 0.083112f, 0.079666f, -0.020567f, -0.063244f,
    0.035818f, -0.023386f, 0.020360f, -0.022278f, -0.024657f, 0.078613f, -0.014903f, -0.054491f, -0.040030f, -0.007103f,
    0.017110f, -0.046787f, 0.035644f, 0.013814f, 0.013604f, 0.007802f, 0.047057f, 0.020717f, 0.084152f, 0.035113f,
    -0.008695f, -0.019345f, -0.049753f, 0.047375f, -0.083421f, 0.084350f, -0.002824f, 0.046025f, -0.054236f, -0.000644f,
    0.065811f, 0.076661f, 0.067857f, -0.075475f, 0.079608f, -0.049549f, -0.036451f, -0.084418f, -0.033687f, -0.071945f,
    -0.028295f, 0.013020f, 0.028786f, 0.047513f, -0.056325f, 0.064309f, -0.024273f, -0.005862f, 0.043775f, -0.068306f,
    0.057191f, -0.076011f, -0.083770f, -0.083892f, -0.011198f, -0.005947f, 0.025416f, -0.002944f, 0.013903f, 0.086985f,
    -0.065417f, 0.019307f, -0.044830f, 0.026686f, 0.012852f, -0.055624f, -0.057110f, 0.030770f, 0.009448f, 0.010007f,
    0.084618f, 0.004729f, -0.059044f, 0.053820f, -0.074324f, 0.082006f, -0.028785f, 0.081141f, 0.061154f, 0.047848f,
    -0.086058f, 0.054467f, 0.010513f, 0.066932f, -0.016760f, 0.013355f, -0.010336f, 0.056465f, 0.021938f, 0.043717f,
    -0.008786f, -0.077057f, -0.077251f, -0.009100f, 0.061213f, -0.048467f, 0.018146f, -0.065727f, -0.043508f, 0.025121f,
    -0.082649f, -0.039578f, 0.015310f, -0.081197f, 0.020166f, 0.080858f, 0.021371f, 0.080812f, -0.022989f, 0.019600f,
    0.066727f, 0.037408f, -0.024103f, -0.004863f, -0.008660f, -0.072575f, 0.075932f, 0.044904f, 0.080985f, 0.086825f,
    0.035388f, -0.037657f, 0.058607f, 0.030881f, -0.039256f, 0.045358f, -0.028899f, 0.038558f, -0.070330f, 0.004369f,
    -0.084818f, 0.044898f, -0.056931f, 0.021513f, 0.060572f, 0.071277f, 0.009949f, 0.042921f, -0.025181f, 0.051463f,
    -0.071058f, -0.066757f, 0.051419f, 0.077366f, 0.075791f, 0.017236f, 0.073443f, -0.088300f, 0.081472f, -0.000888f,
    -0.051392f, 0.051237f, -0.066839f, -0.087399f, -0.003170f, -0.067267f, -0.070209f, -0.072589f, -0.082565f, -0.055006f,
    -0.075898f, -0.046641f, -0.061812f, 0.047342f, 0.087151f, 0.012224f, 0.045789f, -0.077534f, 0.082398f, 0.046868f,
    0.079283f, 0.030599f, -0.080057f, 0.057391f, -0.049544f, 0.076821f, -0.075581f, -0.014744f, 0.010792f, -0.000394f,
    0.034100f, 0.050393f, -0.051105f, 0.063645f, -0.018304f, -0.082243f, 0.022577f, -0.043794f, 0.027066f, -0.025119f,
    -0.054021f, -0.038322f, -0.048818f, -0.059745f, 0.061799f, -0.011444f, -0.017025f, -0.058159f, 0.024705f, 0.052328f,
    -0.055069f, 0.042040f, -0.025369f, -0.060349f, -0.047761f, -0.008512f, 0.088070f, -0.022042f, -0.071994f, 0.066671f,
    -0.045609f, 0.000035f, 0.038729f, 0.070451f, -0.087709f, 0.052087f, 0.084867f, 0.006740f, 0.020648f, -0.065472f,
    0.000811f, -0.052927f, 0.070867f, -0.082053f, 0.067270f, -0.047256f, 0.007412f, -0.066426f, -0.050603f, -0.028311f,
    0.064809f, -0.021468f, 0.057506f, -0.072169f, 0.046017f, 0.068428f, 0.086474f, -0.074863f, 0.023852f, 0.000217f,
    -0.073343f, 0.054217f, 0.062387f, -0.008207f, -0.027346f, 0.057358f, 0.032423f, 0.018031f, -0.084252f, -0.078279f,
    -0.010206f, -0.071049f, 0.077889f, -0.035286f, 0.071939f, -0.019582f, -0.065427f, 0.019426f, -0.067529f, 0.003447f,
    0.062568f, 0.019883f, 0.065921f, 0.009231f, 0.047516f, 0.041734f, 0.004551f, 0.036940f, -0.021564f, -0.046851f,
    0.050015f, 0.031290f, 0.004831f, 0.073573f, 0.015979f, -0.001698f, 0.048899f, -0.069594f, 0.016294f, 0.021840f,
    -0.084641f, -0.078840f, 0.039962f, -0.064766f, 0.077744f, 0.082244f, 0.015169f, 0.065461f, -0.014400f, 0.069746f,
    -0.063083f, -0.048274f, -0.024853f, -0.038494f, -0.003034f, -0.044622f, 0.065925f, 0.010211f, -0.069989f, -0.083686f,
    0.051101f, -0.074378f, -0.055868f, 0.060198f, 0.025962f, 0.012293f, 0.055209f, -0.008449f, -0.087418f, 0.073101f,
    0.015711f, -0.073970f, 0.055090f, 0.041160f, -0.082539f, 0.076197f, 0.043324f, 0.080075f, -0.067603f, -0.001963f,
    -0.067808f, 0.071466f, -0.008090f, 0.018644f, 0.065458f, -0.079644f, 0.026621f, 0.078658f, 0.075993f, -0.059557f,
    0.002694f, -0.066633f, 0.013774f, -0.071681f, 0.049242f, 0.073282f, 0.041592f, 0.073717f, 0.003401f, -0.074299f,
    -0.057777f, -0.006282f, -0.034413f, -0.085682f, -0.086887f, -0.047726f, -0.039004f, 0.009010f, 0.073213f, 0.013249f,
    0.025948f, 0.046136f, -0.025566f, 0.033504f, -0.034181f, 0.017710f, 0.030927f, -0.080289f, 0.039924f, -0.063904f,
    0.053023f, -0.008783f, -0.052637f, -0.079917f, -0.021928f, -0.012445f, -0.034278f, 0.014606f, 0.047900f, -0.055159f,
    -0.067680f, 0.005447f, 0.059382f, -0.021366f, -0.069022f, -0.055329f, -0.062021f, -0.077230f, 0.017866f, 0.010890f,
    -0.079165f, 0.023205f, 0.030957f, 0.019075f, 0.026500f, 0.072035f, -0.055477f, 0.020856f, 0.004077f, -0.068146f,
    0.052449f, 0.036416f, -0.036913f, 0.032435f, 0.046071f, -0.047109f, 0.081843f, 0.049613f, -0.066098f, -0.054861f,
    -0.002505f, -0.006904f, -0.023166f, 0.016925f, -0.037174f, -0.014075f, -0.033046f, 0.041533f, 0.048198f, 0.047932f,
    0.038473f, 0.054782f, 0.036622f, 0.058029f, 0.069446f, -0.075303f, -0.046565f, -0.082472f, -0.039911f, 0.038130f,
    -0.070283f, 0.057899f, -0.026933f, -0.009569f, -0.031790f, -0.036526f, 0.012168f, 0.020127f, -0.077251f, -0.017056f,
    0.077799f, -0.038452f, 0.049610f, -0.079367f, -0.069932f, -0.056506f, -0.048514f, 0.029047f, -0.036379f, -0.015224f,
    -0.068409f, 0.065387f, -0.005286f, -0.033296f, 0.020400f, -0.084292f, 0.064677f, -0.008632f, 0.015943f, -0.002803f,
    0.029045f, -0.055581f, 0.007874f, -0.072908f, 0.071453f, 0.065936f, -0.077467f, 0.085182f, 0.067699f, 0.029353f,
    -0.025585f, -0.040475f, -0.077775f, -0.048570f, -0.033611f, 0.016240f, 0.064853f, 0.006568f, 0.000375f, 0.026434f,
    -0.059257f, -0.034354f, -0.083266f, -0.052191f, 0.021976f, -0.066908f, 0.009320f, 0.044602f, 0.037620f, -0.011934f,
    0.020736f, 0.069151f, -0.060155f, -0.026078f, -0.079942f, 0.014253f, -0.012721f, -0.082105f, -0.081506f, -0.010621f,
    -0.002688f, -0.046248f, 0.018298f, 0.060391f, -0.055936f, 0.040212f, 0.012334f, 0.063991f, -0.050065f, -0.080718f,
    -0.055957f, -0.052098f, -0.028712f, 0.075651f, -0.013291f, 0.048599f, 0.011942f, -0.051556f, 0.085005f, 0.016293f,
    0.071955f, -0.005681f, -0.018490f, 0.056808f, -0.080642f, -0.083065f, -0.032818f, 0.068136f, 0.021292f, 0.012162f,
    0.042316f, -0.023662f, -0.017599f, 0.036952f, 0.059127f, 0.062456f, 0.038486f, 0.043434f, -0.056635f, -0.074774f,
    -0.066480f, 0.024644f, -0.018354f, -0.059825f, 0.065003f, 0.041751f, 0.086451f, -0.010554f, 0.009650f, 0.079524f,
    -0.080153f, -0.084458f, 0.046654f, 0.037829f, 0.012640f, 0.063589f, 0.011925f, -0.086554f, 0.056152f, -0.031737f,
    -0.027159f, -0.033449f, 0.001544f, -0.065043f, 0.075606f, -0.075927f, -0.084430f, -0.013441f, -0.053372f, 0.023475f,
    0.005345f, -0.073101f, 0.075493f, -0.064565f, 0.022487f, 0.020124f, -0.058137f, 0.057170f, -0.068117f, -0.038311f,
    -0.048504f, -0.010835f, 0.028154f, -0.082223f, 0.059045f, 0.063877f, -0.016993f, 0.024845f, 0.075289f, -0.062452f,
    -0.017914f, 0.035719f, -0.086636f, 0.027362f, 0.017934f, -0.044445f, 0.001357f, -0.052694f, 0.034871f, -0.079136f,
    -0.028032f, 0.016966f, -0.024471f, 0.087201f, 0.047991f, -0.050903f, 0.000813f, -0.002388f, 0.077497f, -0.055508f,
    0.025382f, 0.014481f, -0.045388f, 0.048114f, 0.031646f, 0.002288f, 0.040284f, -0.025780f, -0.071440f, 0.041162f,
    0.047042f, 0.034322f, -0.079450f, -0.038240f, -0.076386f, 0.027190f, -0.032073f, -0.046491f, 0.065284f, 0.079243f,
    0.030521f, 0.081278f, -0.083690f, 0.018710f, -0.073059f, 0.014002f, 0.057086f, 0.057538f, -0.032636f, 0.081841f,
    -0.045647f, 0.003377f, 0.033554f, 0.087035f, 0.053682f, -0.039344f, -0.014195f, -0.055245f, 0.050363f, -0.059678f,
    0.084436f, 0.088145f, -0.025083f, -0.027242f, -0.055654f, 0.035700f, 0.081404f, 0.001780f, 0.053802f, -0.007763f,
    -0.066295f, -0.045979f, -0.021526f, -0.085960f, -0.008176f, 0.070806f, -0.034292f, -0.013644f, -0.071831f, 0.078453f,
    -0.009902f, 0.072818f, -0.039632f, 0.049302f, -0.048441f, 0.023140f, -0.066674f, 0.002313f, -0.057220f, -0.075770f,
    0.014398f, 0.087040f, -0.072142f, 0.064766f, 0.028658f, 0.009663f, -0.033216f, -0.034102f, 0.011242f, -0.021086f,
    -0.087709f, 0.034548f, -0.071725f, -0.034447f, -0.046588f, -0.033212f, -0.007715f, -0.034792f, -0.074999f, 0.066745f,
    -0.022627f, 0.024259f, -0.037600f, 0.062443f, -0.031139f, -0.069881f, -0.024943f, -0.049915f, -0.064107f, 0.008265f,
    0.023497f, -0.042443f, 0.018784f, -0.073347f, 0.005562f, -0.024429f, 0.002093f, -0.057123f, 0.047714f, 0.017232f,
    -0.015513f, -0.075607f, 0.009269f, 0.076015f, 0.066733f, 0.066254f, 0.067575f, 0.015464f, 0.064638f, 0.043942f,
    0.023897f, -0.021981f, 0.062614f, 0.079122f, -0.050232f, -0.002955f, 0.039768f, 0.033079f, -0.070276f, 0.019813f,
    -0.087843f, -0.048872f, -0.060188f, -0.018138f, -0.044979f, -0.078593f, -0.084604f, -0.063646f, 0.065280f, 0.058047f,
    -0.085464f, 0.044323f, 0.033811f, -0.050437f, 0.023746f, 0.033544f, -0.049331f, 0.015343f, -0.070204f, -0.087483f,
    0.022329f, -0.036666f, 0.005344f, -0.000788f, 0.048344f, 0.066478f, -0.074796f, -0.003331f, 0.025644f, 0.060087f,
    -0.038913f, 0.077855f, 0.083940f, -0.057928f, 0.035594f, -0.023124f, 0.071728f, -0.034464f, 0.041027f, -0.075553f,
    0.052931f, 0.018352f, -0.029172f, -0.079164f, -0.062926f, 0.013030f, -0.073506f, 0.015435f, -0.065040f, -0.044028f,
    0.048670f, -0.047834f, 0.069953f, 0.056069f, -0.060659f, -0.054704f, 0.055449f, -0.080762f, 0.040609f, -0.036775f,
    -0.057779f, 0.036332f, 0.073678f, 0.050349f, -0.017519f, 0.009293f, -0.036482f, 0.020595f, -0.061209f, -0.026910f,
    -0.003728f, 0.062289f, 0.021385f, -0.080253f, 0.079623f, -0.073105f, 0.057787f, -0.061511f, -0.087548f, -0.003729f,
    0.082112f, 0.006620f, -0.021645f, -0.069560f, -0.041138f, -0.042633f, -0.061991f, 0.056175f, 0.063667f, 0.053032f,
    0.021792f, 0.033168f, -0.086185f, 0.072152f, -0.003729f, 0.077779f, -0.068902f, 0.057981f, 0.054577f, -0.073438f,
    0.045391f, 0.083710f, -0.017842f, -0.047999f, 0.028122f, -0.065096f, -0.037878f, 0.049182f, 0.040738f, 0.085071f,
    -0.078618f, 0.081685f, 0.003117f, -0.064179f, -0.005435f, 0.044335f, -0.026427f, 0.086298f, -0.007866f, -0.038924f,
    0.011816f, -0.026468f, 0.004718f, -0.020817f, 0.004318f, 0.026271f, -0.033219f, 0.015857f, -0.029774f, 0.071075f,
    0.029109f, 0.075560f, 0.030096f, 0.049931f, -0.041418f, 0.016847f, 0.005777f, -0.021283f, 0.078118f, -0.063641f,
    -0.049329f, -0.041227f, -0.031499f, -0.000861f, 0.007732f, -0.021382f, -0.049570f, -0.075526f, -0.083630f, -0.070701f,
    -0.012392f, -0.001086f, -0.077355f, -0.028067f, 0.022170f, 0.035638f, -0.004661f, -0.086262f, 0.031033f, 0.045918f,
    0.026405f, 0.015712f, -0.037038f, 0.058569f, -0.005266f, 0.023991f, 0.012474f, -0.053084f, -0.067413f, 0.065906f,
    -0.015443f, 0.038544f, 0.026210f, -0.075272f, -0.005259f, 0.007419f, 0.005041f, 0.077512f, -0.006732f, -0.010359f,
    0.002587f, -0.072106f, 0.039859f, -0.015677f, -0.076137f, -0.041300f, -0.047147f, -0.068354f, 0.073181f, 0.011157f,
    -0.047402f, 0.029109f, -0.038124f, 0.049707f, 0.072938f, -0.083806f, -0.055781f, -0.031423f, -0.068515f, -0.016254f,
    0.074597f, 0.077724f, 0.008431f, 0.031678f, 0.008529f, -0.063491f, -0.038474f, -0.025917f, -0.030239f, 0.026767f,
    0.038903f, 0.010800f, 0.060953f, -0.026062f, 0.021770f, -0.001578f, 0.048981f, -0.010214f, -0.039343f, -0.064679f,
    -0.071925f, -0.014892f, 0.085063f, 0.030604f, 0.081668f, -0.075012f, -0.025387f, 0.049191f, 0.008758f, 0.006031f,
    0.025190f, -0.037542f, 0.044777f, 0.055299f, 0.034535f, -0.047270f, -0.052738f, -0.008903f, 0.068234f, 0.065422f,
    -0.044380f, 0.072208f, -0.012319f, 0.078275f, -0.018504f, 0.034789f, 0.032760f, 0.054411f, 0.061559f, -0.022235f,
    -0.031512f, 0.083959f, 0.072343f, 0.012379f, -0.031773f, 0.031572f, -0.003422f, 0.065098f, -0.061368f, -0.047859f,
    -0.023816f, 0.028282f, -0.013964f, 0.082113f, 0.037605f, 0.022422f, -0.028989f, 0.081715f, 0.082630f, 0.017112f,
    0.064699f, 0.001545f, -0.085893f, -0.068872f, -0.051929f, 0.041927f, -0.027494f, -0.000552f, 0.047876f, -0.017050f,
    0.009152f, -0.031105f, -0.085990f, 0.052808f, 0.021305f, 0.087211f, 0.063802f, -0.004653f, 0.033937f, 0.076147f,
    0.043227f, -0.015732f, -0.008386f, 0.035877f, 0.009547f, 0.010135f, -0.060256f, 0.037314f, -0.063914f, -0.003398f,
    -0.017397f, 0.065641f, -0.044750f, -0.010694f, -0.058012f, 0.023804f, -0.080449f, -0.057225f, 0.068928f, 0.041358f,
    -0.011905f, -0.018534f, -0.064252f, 0.034051f, 0.050457f, -0.062899f, -0.021480f, 0.065117f, -0.077993f, -0.039429f,
    -0.007860f, -0.018085f, 0.066648f, -0.065863f, 0.075842f, 0.040405f, -0.030824f, -0.072520f, 0.073018f, 0.045331f,
    -0.026674f, -0.061535f, -0.040885f, -0.035859f, 0.062562f, 0.033794f, -0.031734f, 0.043978f, 0.009352f, 0.032882f,
    -0.039011f, 0.043977f, -0.082959f, -0.064999f, -0.055164f, 0.010797f, -0.075842f, -0.022689f, 0.071820f, 0.019270f,
    -0.059618f, -0.055884f, -0.079938f, -0.084859f, -0.033786f, -0.038010f, -0.030935f, -0.022214f, 0.012216f, 0.080510f,
    0.007597f, 0.034861f, 0.012235f, -0.045990f, -0.078862f, 0.075386f, 0.051158f, 0.052054f, 0.078579f, -0.032337f,
    0.080746f, 0.014223f, 0.065443f, -0.075817f, -0.054645f, -0.026012f, 0.045567f, -0.012926f, 0.073385f, 0.087886f,
    -0.055074f, -0.063621f, 0.018307f, -0.004171f, 0.084238f, 0.047667f, -0.071802f, -0.024471f, 0.002934f, -0.013140f,
    0.037211f, 0.046522f, -0.010233f, 0.060671f, -0.034976f, -0.041800f, 0.053394f, -0.020720f, 0.023889f, -0.054460f,
    -0.042803f, -0.054876f, -0.039621f, -0.054261f, 0.058691f, -0.047435f, 0.081392f, 0.080364f, 0.075078f, -0.010486f,
    0.059536f, -0.000436f, 0.022727f, 0.076279f, -0.006591f, 0.039351f, 0.017064f, -0.003516f, -0.027706f, -0.043953f,
    -0.037392f, 0.070492f, 0.041265f, 0.067487f, -0.053829f, -0.072588f, 0.009816f, -0.059840f, 0.013919f, 0.052756f,
    -0.017127f, 0.016302f, -0.060259f, 0.052807f, -0.031430f, 0.049303f, -0.022995f, 0.064098f, 0.017209f, -0.058562f,
    0.061368f, 0.009200f, 0.029894f, -0.085213f, -0.026064f, 0.030847f, 0.046887f, 0.055718f, 0.007003f, -0.025319f,
    0.088118f, -0.020842f, -0.047847f, 0.034312f, 0.002650f, -0.007879f, -0.078132f, -0.052509f, 0.062823f, -0.042347f,
    0.042195f, -0.018056f, 0.017929f, -0.068426f, -0.050472f, -0.002215f, 0.027708f, 0.015368f, 0.082862f, -0.015782f,
    0.023924f, 0.018031f, -0.038270f, -0.087483f, -0.044699f, 0.026277f, 0.083387f, 0.073761f, 0.017444f, -0.080646f,
    0.005836f, 0.012608f, -0.074201f, -0.075995f, 0.037223f, 0.032703f, -0.047819f, 0.078873f, 0.042896f, 0.083649f,
    -0.025933f, 0.064927f, -0.020833f, -0.010078f, 0.043008f, 0.084364f, 0.084683f, 0.022397f, 0.020075f, -0.044616f,
    0.022867f, -0.025356f, -0.078071f, -0.049724f, 0.017060f, -0.057921f, 0.048951f, 0.035379f, -0.008105f, 0.032100f,
    -0.011962f, 0.006782f, -0.007286f, -0.063183f, 0.026537f, 0.076192f, -0.029992f, 0.071997f, 0.084149f, -0.041119f,
    -0.031885f, -0.063352f, -0.037381f, 0.006803f, 0.000759f, -0.080858f, -0.039815f, 0.012030f, 0.068610f, 0.069842f,
    -0.075809f, -0.045786f, -0.049870f, -0.053835f, 0.064103f, 0.029607f, -0.037776f, -0.045865f, -0.078108f, -0.052341f,
    -0.080579f, -0.044808f, -0.040312f, 0.034399f, 0.043009f, -0.058799f, 0.048404f, -0.012322f, -0.078375f, 0.054242f,
    0.005476f, -0.022731f, 0.056748f, 0.022059f, -0.087067f, -0.056947f, -0.010061f, -0.080845f, 0.076501f, -0.017365f,
    -0.026067f, 0.064018f, -0.069218f, -0.019341f, 0.020012f, 0.033222f, 0.074789f, 0.026849f, 0.069094f, -0.057726f,
    0.060509f, -0.054554f, 0.028506f, 0.006947f, -0.031314f, -0.073922f, 0.056999f, -0.052404f, 0.066103f, -0.069541f,
    0.073091f, -0.056545f, 0.048394f, -0.045930f, 0.034904f, 0.059161f, 0.082318f, -0.052603f, -0.000865f, -0.044504f,
    -0.078103f, -0.042990f, 0.037406f, 0.036391f, -0.073294f, 0.059734f, 0.087881f, 0.087101f, 0.037994f, 0.030343f,
    -0.082747f, -0.036581f, -0.063927f, 0.081506f, -0.070103f, 0.047150f, 0.071177f, -0.085090f, 0.086090f, 0.076971f,
    -0.077487f, 0.066053f, -0.015263f, -0.028673f, -0.000599f, -0.010744f, 0.034902f, -0.028843f, -0.009335f, -0.000257f,
    0.051974f, -0.066065f, -0.016376f, -0.048901f, -0.055079f, -0.066892f, 0.003268f, 0.079448f, -0.084455f, 0.021347f,
    0.046752f, -0.054156f, -0.068367f, 0.062710f, 0.045034f, -0.040100f, -0.016131f, -0.004841f, -0.052713f, 0.052398f,
    -0.002282f, -0.030180f, 0.018698f, -0.075118f, -0.022230f, 0.072215f, -0.088064f, -0.014214f, 0.081701f, -0.085644f,
    -0.040627f, 0.020284f, -0.078038f, -0.020084f, 0.037262f, -0.076016f, -0.016731f, 0.005038f, 0.058973f, 0.072141f,
    0.005740f, -0.015372f, -0.052704f, 0.005046f, -0.063416f, -0.072918f, -0.024496f, 0.002214f, -0.059681f, 0.006204f,
    0.053822f, 0.034085f, -0.044039f, 0.004002f, -0.013315f, -0.026266f, 0.040973f, -0.001437f, 0.000467f, -0.072080f,
    -0.048808f, 0.005706f, 0.019491f, -0.008430f, 0.032103f, 0.082131f, 0.019927f, -0.071208f, -0.009632f, 0.032420f,
    0.072492f, -0.058613f, -0.016394f, -0.067836f, 0.018514f, 0.067632f, 0.074509f, 0.022328f, -0.065628f, -0.036522f,
    -0.061189f, -0.012760f, -0.037486f, -0.067705f, 0.072372f, 0.035143f, -0.056356f, 0.000534f, -0.009490f, -0.058703f,
    0.077676f, 0.043802f, 0.086004f, -0.068234f, -0.087031f, -0.008407f, 0.010925f, 0.074552f, -0.038827f, 0.020765f,
    -0.007807f, -0.024837f, 0.084376f, -0.072834f, 0.039579f, 0.040071f, -0.067768f, -0.009244f, 0.061196f, -0.041502f,
    -0.051030f, -0.070587f, 0.078340f, 0.050847f, 0.076544f, 0.011443f, -0.077113f, 0.034198f, 0.015217f, 0.036242f,
    -0.001967f, 0.071652f, 0.008211f, 0.072164f, -0.035880f, -0.073332f, 0.038181f, 0.056549f, 0.019870f, 0.016705f,
    -0.019722f, -0.012634f, -0.032472f, 0.069393f, -0.030805f, 0.079219f, 0.067067f, -0.070181f, 0.014533f, -0.029745f,
    -0.054523f, -0.003021f, 0.016672f, -0.038286f, 0.076870f, -0.011171f, 0.045789f, -0.035799f, -0.017619f, -0.004869f,
    0.025571f, -0.032550f, -0.075357f, 0.087173f, -0.077816f, -0.031390f, -0.009497f, 0.079185f, 0.006358f, -0.040730f,
    -0.083133f, 0.034588f, 0.002413f, -0.021041f, 0.072546f, 0.054469f, -0.059377f, -0.069780f, 0.045895f, 0.014070f,
    0.037333f, -0.076740f, 0.081874f, 0.079391f, -0.023727f, -0.085587f, -0.056408f, 0.021032f, 0.030673f, 0.016442f,
    0.028787f, -0.060207f, 0.079193f, -0.067792f, 0.061081f, -0.068968f, -0.048399f, 0.047130f, -0.046168f, 0.063498f,
    0.054121f, 0.009799f, 0.056948f, 0.033479f, -0.034993f, -0.033499f, 0.027236f, -0.013234f, -0.064489f, 0.063638f,
    0.058387f, -0.083556f, -0.014664f, -0.061316f, 0.046061f, -0.016112f, 0.074751f, 0.031267f, -0.088008f, 0.076152f,
    0.068302f, 0.063950f, -0.046712f, -0.000712f, -0.059596f, 0.049752f, -0.068184f, -0.028864f, 0.025498f, 0.081682f,
    0.020083f, 0.036808f, 0.076650f, 0.039270f, -0.087849f, -0.068778f, 0.081667f, -0.030708f, -0.082777f, -0.081099f,
    -0.063844f, 0.051599f, -0.022063f, -0.080192f, 0.032937f, -0.084156f, 0.067171f, 0.028874f, 0.008348f, 0.075366f,
    0.077879f, -0.013354f, 0.056240f, 0.051571f, 0.060208f, 0.068108f, 0.040371f, 0.030082f, 0.055331f, -0.007025f,
    0.044118f, 0.081839f, 0.042450f, 0.002994f, -0.062534f, -0.069302f, -0.035926f, -0.047806f, -0.013074f, 0.048045f,
    -0.008061f, -0.059100f, -0.041843f, -0.069870f, 0.055272f, -0.008407f, -0.048234f, 0.002085f, -0.013245f, 0.070671f,
    -0.057398f, -0.070372f, -0.035539f, 0.021237f, 0.002297f, 0.006314f, -0.021703f, 0.085154f, -0.018713f, -0.070032f,
    0.013954f, -0.081214f, -0.024827f, -0.074489f, 0.086926f, -0.084528f, 0.010321f, -0.039872f, 0.042086f, 0.005308f,
    -0.087047f, 0.043213f, -0.008166f, -0.033350f, 0.032022f, -0.028774f, -0.046256f, 0.050633f, 0.000831f, 0.066881f,
    0.069783f, -0.051904f, -0.079802f, 0.006239f, 0.069681f, -0.075206f, 0.084597f, -0.022764f, -0.034652f, -0.055690f,
    0.010597f, 0.023458f, -0.085659f, 0.042202f, 0.027240f, 0.061141f, -0.007462f, -0.076323f, 0.032675f, 0.042152f,
    -0.035126f, -0.043546f, 0.082331f, 0.008634f, -0.056349f, -0.020344f, -0.064942f, -0.014240f, 0.016950f, -0.001891f,
    0.040441f, 0.042083f, 0.017946f, -0.073583f, -0.021081f, 0.074169f, -0.009492f, 0.067805f, 0.005598f, -0.045379f,
    -0.004882f, -0.043872f, 0.057065f, 0.084194f, -0.047224f, -0.010742f, -0.057094f, -0.071279f, -0.051799f, -0.050861f,
    -0.076029f, -0.062768f, 0.027642f, -0.007644f, -0.072031f, -0.047199f, -0.022116f, -0.074197f, 0.038653f, -0.048652f,
    0.015182f, -0.040127f, 0.047239f, -0.003751f, -0.013864f, 0.068294f, 0.080632f, 0.000095f, 0.068394f, 0.054475f,
    -0.083756f, 0.065954f, -0.046370f, -0.002925f, 0.078185f, -0.057133f, -0.057051f, 0.029484f, 0.047838f, 0.004514f,
    -0.065924f, -0.058954f, -0.028796f, 0.050159f, -0.048101f, -0.051931f, -0.066812f, -0.022602f, 0.058941f, 0.047348f,
    -0.087268f, 0.016680f, 0.056889f, 0.037650f, -0.020043f, 0.026635f, -0.041788f, -0.019486f, 0.016624f, -0.034247f,
    0.086495f, 0.026940f, -0.073378f, 0.036311f, -0.059173f, 0.057322f, 0.052372f, 0.067289f, 0.087822f, -0.013857f,
    -0.041192f, -0.066207f, -0.006103f, 0.078512f, 0.050993f, 0.070610f, -0.005353f, 0.021302f, 0.005117f, 0.087032f,
    -0.075230f, 0.025575f, -0.082478f, -0.052847f, -0.031656f, -0.006230f, -0.059927f, -0.056624f, -0.009741f, -0.032996f,
    -0.053938f, -0.086219f, -0.041678f, 0.031305f, -0.040678f, 0.002967f, 0.068218f, -0.057974f, -0.083617f, 0.081868f,
    0.046836f, -0.024514f, 0.005839f, 0.013861f, -0.063146f, -0.060021f, -0.053377f, -0.061410f, 0.045378f, -0.007220f,
    0.061678f, 0.076864f, 0.057434f, 0.086105f, 0.085421f, 0.077552f, -0.024340f, 0.010075f, 0.035050f, 0.008535f,
    0.060915f, 0.017770f, -0.007938f, 0.004134f, -0.031793f, -0.021258f, -0.051057f, 0.085864f, 0.000485f, -0.061710f,
    -0.022069f, 0.007639f, -0.038159f, 0.061104f, 0.033796f, 0.026840f, 0.000910f, 0.073322f, 0.083036f, 0.056526f,
    0.087599f, 0.000982f, -0.010648f, 0.016875f, 0.077051f, -0.021590f, -0.040006f, 0.079343f, 0.086587f, 0.051321f,
    0.077361f, -0.055728f, -0.048107f, 0.047926f, -0.068330f, 0.036194f, -0.026653f, -0.073115f, -0.001042f, -0.026646f,
    -0.079624f, -0.033141f, -0.057283f, 0.060556f, 0.088381f, -0.008210f, 0.065544f, -0.052818f, -0.000110f, 0.043153f,
    0.071310f, -0.055309f, -0.030006f, -0.086926f, -0.052244f, -0.027757f, -0.088212f, -0.087636f, -0.053336f, 0.058257f,
    -0.047717f, -0.084078f, -0.047051f, -0.010433f, 0.004946f, -0.033497f, -0.073834f, 0.055560f, 0.001235f, -0.010979f,
    0.064649f, -0.062451f, -0.028209f, 0.022082f, 0.003156f, 0.069705f, -0.039626f, -0.041679f, 0.038951f, -0.069201f,
    -0.014069f, 0.013640f, 0.086800f, -0.049550f, 0.056794f, -0.015576f, -0.004863f, -0.011519f, 0.004964f, -0.034149f,
    -0.031724f, -0.037750f, 0.012331f, 0.026616f, 0.055617f, -0.008254f, -0.062701f, 0.009647f, -0.086728f, 0.020608f,
    0.056326f, -0.034161f, -0.010840f, 0.087762f, 0.047537f, -0.040405f, 0.045152f, 0.065174f, 0.085285f, 0.060580f,
    -0.033706f, 0.053335f, -0.076877f, -0.065875f, -0.055499f, 0.082635f, 0.072735f, -0.083545f, 0.068996f, -0.056691f,
    -0.069558f, 0.061393f, 0.060027f, -0.012536f, 0.015146f, 0.054016f, -0.023155f, 0.057854f, 0.005652f, 0.010927f,
    -0.057124f, -0.040016f, -0.034706f, 0.059474f, 0.040186f, -0.083521f, 0.039031f, 0.038610f, -0.075434f, -0.032451f,
    -0.071445f, -0.006141f, 0.029215f, -0.070678f, 0.050582f, -0.085031f, 0.074952f, 0.050614f, -0.027582f, -0.088045f,
    -0.081562f, -0.000162f, -0.026924f, 0.026117f, 0.048119f, -0.064960f, -0.014514f, -0.016117f, 0.047961f, -0.019986f,
    0.079103f, -0.084460f, -0.016616f, -0.002187f, 0.023838f, 0.056745f, 0.034885f, 0.041025f, 0.035962f, -0.074403f,
    0.045544f, -0.082312f, 0.041990f, 0.022997f, 0.052577f, -0.078163f, 0.030492f, -0.038497f, 0.069795f, -0.032609f,
    0.078073f, -0.052217f, -0.026398f, 0.008500f, -0.073011f, -0.038608f, 0.032756f, -0.068010f, -0.033267f, -0.058800f,
    0.015373f, -0.014100f, -0.018184f, -0.011673f, 0.031270f, -0.069601f, -0.042215f, -0.047445f, -0.041025f, 0.033923f,
    0.043191f, -0.053582f, -0.086311f, 0.041283f, -0.035450f, 0.006429f, 0.056834f, 0.002845f, 0.081296f, 0.042663f,
    -0.072275f, 0.039651f, 0.088315f, 0.037654f, -0.031910f, -0.049361f, -0.083984f, 0.000938f, -0.049097f, -0.066587f,
    -0.077271f, 0.050952f, 0.085471f, -0.082336f, -0.013241f, 0.024061f, 0.025792f, -0.030748f, -0.004031f, 0.079738f,
    -0.004037f, -0.043469f, -0.000273f, 0.057711f, 0.080249f, -0.023471f, 0.065404f, -0.010336f, 0.007898f, -0.030408f,
    0.045247f, -0.024335f, -0.001083f, 0.020637f, -0.059189f, 0.050091f, 0.084606f, -0.009403f, 0.004761f, 0.048447f,
    0.004682f, -0.051668f, -0.084283f, -0.028260f, -0.085068f, -0.076974f, 0.060870f, 0.045630f, -0.078541f, -0.060369f,
    0.008431f, 0.082829f, 0.004786f, 0.074668f, 0.053249f, -0.029102f, -0.019644f, 0.010789f, -0.076775f, 0.011329f,
    0.033871f, 0.052443f, -0.029175f, -0.063117f, -0.015463f, 0.036859f, 0.080745f, 0.066262f, 0.044927f, 0.082587f,
    -0.069786f, 0.056802f, -0.021142f, -0.083614f, 0.022559f, 0.033402f, -0.017213f, 0.067388f, 0.036425f, -0.069788f,
    -0.087945f, -0.065770f, 0.073465f, -0.052336f, 0.065482f, 0.080348f, 0.034105f, -0.074654f, 0.078153f, -0.065249f,
    -0.038546f, 0.076848f, -0.050832f, 0.012492f, -0.003783f, 0.055399f, 0.020781f, 0.003919f, 0.027801f, -0.029719f,
    0.001456f, 0.002871f, 0.051834f, -0.047084f, 0.035904f, -0.069518f, -0.049798f, -0.065243f, -0.060402f, -0.034941f,
    0.084533f, -0.085224f, 0.074419f, 0.024810f, 0.055119f, -0.020857f, 0.007219f, -0.059045f, -0.049571f, -0.080264f,
    -0.051550f, -0.033009f, 0.024550f, -0.002138f, 0.088273f, -0.073961f, -0.022779f, 0.079466f, 0.009934f, -0.080733f,
    -0.084412f, 0.056107f, -0.011318f, -0.069487f, 0.078140f, 0.083988f, 0.041900f, -0.079210f, 0.035800f, 0.002739f,
    0.021678f, -0.043601f, -0.079236f, 0.054658f, 0.022413f, 0.044301f, -0.072901f, 0.054453f, 0.082109f, 0.074063f,
    -0.079787f, -0.048765f, 0.060899f, 0.000876f, -0.010969f, 0.038029f, 0.080518f, -0.052667f, -0.068433f, 0.062570f,
    -0.057706f, 0.037116f, 0.053575f, -0.053737f, -0.081118f, 0.032986f, -0.079271f, 0.004314f, 0.044901f, -0.055560f,
    0.016846f, -0.019333f, 0.063669f, 0.003640f, 0.053838f, -0.001649f, -0.006370f, -0.073996f, 0.071265f, 0.066445f,
    -0.074031f, 0.086913f, -0.043932f, 0.019093f, 0.072317f, 0.083737f, -0.071600f, 0.024166f, -0.049151f, -0.011157f,
    0.010378f, -0.046178f, -0.076942f, -0.039108f, 0.056099f, 0.086625f, 0.033233f, -0.072414f, -0.078500f, 0.039881f,
    0.014234f, -0.080660f, 0.039593f, -0.079657f, -0.005283f, 0.008346f, -0.080979f, -0.023810f, -0.064695f, 0.018840f,
    -0.040270f, 0.034425f, 0.067564f, 0.087888f, 0.049490f, -0.045411f, 0.050542f, 0.052482f, 0.064081f, -0.055281f,
    0.075290f, 0.066829f, 0.025665f, 0.059846f, -0.016869f, -0.060772f, -0.086427f, 0.052152f, -0.061599f, 0.064224f,
    -0.022293f, -0.010684f, 0.021042f, -0.017491f, 0.088255f, 0.070898f, 0.023877f, 0.059701f, -0.026721f, -0.002884f,
    -0.033378f, 0.022349f, 0.021688f, 0.084444f, 0.084262f, 0.057976f, -0.084051f, 0.088268f, 0.076289f, -0.066002f,
    -0.041303f, -0.004002f, -0.055902f, -0.017831f, -0.073122f, 0.088238f, -0.038932f, 0.014016f, 0.043424f, -0.035663f,
    -0.052529f, 0.030906f, -0.055719f, -0.045873f, 0.015575f, 0.035427f, 0.025055f, 0.068184f, -0.064238f, -0.083436f,
    0.003773f, -0.043051f, -0.030078f, -0.062580f, 0.004256f, 0.069637f, 0.084309f, 0.063305f, -0.017618f, 0.074011f,
    -0.080123f, 0.064581f, 0.082847f, 0.067347f, -0.007312f, -0.073303f, 0.020706f, -0.069395f, 0.082430f, -0.016129f,
    0.058070f, -0.036464f, -0.050239f, -0.061328f, -0.067279f, -0.072721f, -0.071787f, 0.085728f, -0.023880f, -0.084923f,
    0.027007f, 0.030484f, -0.046528f, -0.035267f, -0.034932f, 0.048048f, 0.035747f, 0.041134f, 0.029181f, 0.050770f,
    -0.072240f, 0.012791f, 0.058888f, -0.004987f, 0.082943f, -0.023393f, -0.067324f, 0.067196f, -0.035066f, 0.061274f,
    -0.071136f, 0.002052f, -0.055428f, -0.075549f, 0.074324f, -0.065822f, -0.055536f, -0.065263f, 0.056693f, -0.049480f,
    0.061862f, -0.010714f, -0.071720f, 0.042854f, 0.008093f, 0.039183f, -0.079555f, -0.076814f, -0.008699f, 0.033560f,
    0.026907f, 0.030100f, -0.046726f, 0.022971f, 0.024258f, -0.053219f, -0.073448f, 0.071953f, 0.057250f, 0.071320f,
    0.054275f, 0.050977f, -0.070956f, 0.019227f, 0.001510f, -0.057428f, 0.079831f, -0.030210f, 0.043405f, 0.022052f,
    -0.074976f, -0.030042f, 0.040125f, -0.069278f, -0.001748f, -0.065858f, 0.059755f, 0.046327f, -0.044937f, -0.041165f,
    0.063808f, -0.061396f, 0.029292f, 0.048596f, -0.034489f, 0.075614f, 0.047148f, 0.057087f, 0.029212f, -0.020759f,
    -0.013976f, -0.082471f, 0.003329f, 0.055247f, -0.011219f, -0.070163f, -0.032250f, -0.039345f, 0.065787f, -0.000667f,
    0.016112f, -0.065468f, -0.086807f, 0.009429f, 0.054824f, 0.079123f, 0.067557f, 0.037752f, 0.041968f, -0.054049f,
    0.081900f, -0.077176f, 0.084490f, 0.078747f, 0.066264f, 0.018622f, 0.023530f, -0.017633f, -0.063102f, -0.081403f,
    0.010812f, 0.028278f, -0.051530f, -0.003253f, -0.077328f, -0.049673f, -0.048863f, 0.031201f, 0.023843f, 0.034689f,
    -0.085268f, 0.041283f, -0.047158f, 0.038905f, 0.045902f, -0.084752f, -0.079854f, -0.081087f, -0.028160f, 0.026153f,
    -0.063174f, -0.064778f, 0.008662f, -0.044615f, 0.019816f, -0.085006f, 0.021944f, 0.022644f, -0.079223f, 0.014504f,
    0.043336f, 0.035899f, -0.050284f, -0.004845f, 0.072617f, -0.016351f, 0.066469f, 0.008994f, -0.073480f, -0.019698f,
    -0.032757f, -0.042432f, -0.077868f, -0.011652f, 0.067923f, 0.054606f, 0.027865f, 0.061328f, 0.058210f, 0.064352f,
    -0.033928f, 0.014358f, -0.083974f, 0.035196f, -0.039371f, -0.020713f, -0.064999f, 0.080852f, -0.070387f, 0.067422f,
    0.024188f, -0.028948f, 0.042987f, -0.049499f, -0.017575f, 0.050537f, -0.074750f, -0.016555f, -0.029734f, 0.060480f,
    -0.000262f, 0.009221f, -0.001897f, 0.057778f, -0.001557f, 0.020656f, 0.058039f, -0.084595f, -0.052244f, 0.039671f,
    -0.030997f, -0.065831f, 0.076628f, -0.076328f, -0.050840f, -0.008967f, 0.069938f, 0.046389f, -0.067226f, 0.001002f,
    0.005170f, -0.022247f, 0.024311f, 0.073085f, -0.050950f, -0.074569f, -0.077101f, -0.064016f, -0.048752f, 0.054322f,
    0.053291f, -0.025446f, -0.014178f, 0.064794f, -0.039334f, -0.059624f, 0.023345f, -0.028023f, 0.044591f, 0.038609f,
    0.075598f, -0.067911f, -0.052861f, 0.008340f, -0.045530f, -0.050620f, -0.012163f, -0.037690f, -0.027193f, 0.061160f,
    -0.021555f, 0.086690f, -0.069194f, 0.018468f, 0.009404f, 0.030131f, -0.067765f, -0.028404f, 0.007837f, 0.024608f,
    -0.011446f, 0.016388f, -0.014438f, 0.006735f, 0.016146f, -0.026628f, -0.058902f, -0.038152f, -0.022484f, -0.015907f,
    -0.000344f, 0.083828f, 0.002082f, -0.027070f, -0.023709f, 0.033684f, 0.024675f, 0.027247f, -0.024542f, -0.018498f,
    0.001698f, -0.037061f, -0.049020f, -0.041964f, 0.069408f, 0.024711f, -0.036099f, -0.053414f, -0.074568f, 0.056326f,
    0.081467f, 0.061672f, 0.059075f, 0.052435f, -0.080893f, 0.085067f, 0.039000f, 0.047486f, -0.007132f, -0.025371f,
    0.046128f, 0.005159f, 0.037857f, -0.015795f, -0.070096f, 0.034329f, -0.075073f, 0.025171f, 0.029283f, -0.032109f,
    -0.017260f, -0.027780f, -0.052200f, 0.080719f, -0.035110f, -0.051994f, 0.058445f, -0.034503f, -0.067655f, 0.006199f,
    -0.023113f, 0.067418f, -0.026744f, 0.044539f, -0.005107f, -0.040966f, 0.036938f, -0.011188f, 0.077174f, 0.038587f,
    0.049007f, 0.078515f, -0.085307f, -0.004751f, 0.019039f, 0.033151f, 0.032516f, -0.055302f, -0.039625f, -0.034187f,
    -0.053023f, 0.066151f, -0.007585f, -0.085383f, 0.042849f, -0.032365f, -0.019212f, 0.035227f, -0.036661f, 0.032427f,
    0.054495f, 0.001426f, -0.000235f, -0.056442f, 0.033580f, -0.011564f, -0.048500f, -0.031667f, 0.050887f, 0.034927f,
    -0.034249f, -0.059290f, 0.059973f, 0.035037f, -0.049248f, 0.030446f, -0.028080f, -0.040416f, -0.043065f, -0.020762f,
    -0.047567f, 0.053974f, -0.036277f, -0.048140f, -0.008470f, 0.028650f, -0.041478f, 0.038468f, 0.079687f, -0.059448f,
    -0.080533f, -0.071449f, -0.020837f, -0.030590f, -0.083158f, 0.033837f, 0.009205f, -0.064806f, 0.024503f, 0.077677f,
    -0.072820f, -0.080356f, 0.000522f, 0.080967f, -0.030531f, 0.045212f, -0.064454f, -0.040092f, 0.021491f, -0.058288f,
    0.045813f, -0.033227f, -0.024303f, 0.085199f, -0.039840f, 0.045429f, -0.050509f, -0.062025f, -0.045901f, 0.060439f,
    0.039677f, -0.011166f, -0.032216f, -0.006572f, 0.087541f, 0.054273f, 0.038822f, -0.076894f, 0.050570f, -0.014724f,
    -0.053730f, 0.031170f, -0.064798f, -0.000980f, 0.043616f, 0.058059f, 0.057272f, 0.079032f, -0.051434f, 0.077226f,
    -0.087212f, -0.030710f, -0.044809f, 0.076320f, 0.063199f, 0.017883f, 0.066024f, 0.081633f, 0.010099f, 0.069673f,
    0.078090f, -0.019067f, -0.018679f, 0.049490f, 0.064673f, 0.009572f, 0.051172f, -0.080169f, -0.082497f, 0.086445f,
    -0.026758f, -0.070825f, -0.050690f, 0.065779f, 0.015338f, 0.048107f, 0.048064f, 0.021678f, -0.016808f, 0.049743f,
    0.037217f, 0.020394f, -0.062312f, -0.005662f, -0.087305f, 0.058732f, 0.003976f, -0.079423f, 0.087952f, -0.027449f,
    0.003231f, 0.000112f, 0.003006f, -0.071418f, -0.059659f, -0.042124f, 0.009225f, 0.040947f, -0.052368f, 0.035997f,
    -0.080061f, 0.074792f, 0.025174f, 0.068592f, 0.082756f, -0.067829f, -0.077710f, 0.021753f, -0.072852f, -0.061169f,
    0.033575f, -0.019339f, 0.077436f, -0.072229f, 0.047828f, -0.049789f, -0.067093f, -0.069836f, 0.086149f, 0.048972f,
    -0.059876f, 0.042985f, -0.075422f, -0.037628f, -0.079217f, -0.066087f, -0.027873f, 0.048310f, -0.001755f, -0.056353f,
    -0.053729f, 0.013953f, -0.033566f, -0.020496f, -0.018416f, 0.028729f, 0.036937f, 0.061445f, 0.001111f, 0.006449f,
    0.061145f, -0.012026f, 0.046886f, 0.087455f, -0.065977f, 0.050473f, -0.039893f, 0.078394f, 0.066838f, 0.030533f,
    -0.072214f, -0.082017f, -0.018900f, -0.027128f, -0.056956f, 0.031010f, -0.082775f, -0.071921f, 0.018885f, -0.036133f,
    0.018942f, -0.073542f, -0.087706f, 0.005903f, 0.019994f, 0.050957f, 0.084577f, -0.045263f, -0.011341f, 0.073535f,
    0.050882f, -0.006937f, -0.080710f, -0.036082f, -0.037376f, -0.036196f, -0.033318f, -0.064605f, -0.073428f, -0.001244f,
    0.026296f, -0.032023f, -0.009158f, -0.087222f, 0.053796f, -0.002725f, -0.034758f, -0.072162f, 0.001341f, 0.038197f,
    -0.031567f, 0.033468f, -0.010477f, -0.064589f, 0.035323f, -0.031673f, -0.052691f, -0.003031f, 0.033606f, -0.079135f,
    0.029602f, -0.059531f, 0.037933f, 0.028879f, 0.000724f, -0.088307f, 0.038032f, -0.066359f, -0.011984f, -0.064619f,
    -0.049055f, -0.041116f, -0.015831f, -0.063447f, 0.013449f, -0.001051f, -0.005882f, 0.057273f, -0.072429f, -0.004313f,
    -0.057747f, -0.007182f, -0.084295f, 0.059933f, -0.012842f, -0.005025f, -0.082635f, -0.000601f, -0.071652f, 0.072138f,
    -0.046120f, -0.070116f, -0.080649f, -0.087747f, 0.060792f, 0.015145f, -0.008266f, 0.057477f, 0.081766f, -0.002645f,
    -0.063080f, 0.043210f, -0.007411f, -0.048446f, -0.085791f, 0.070680f, 0.009447f, -0.032515f, -0.036439f, -0.065137f,
    -0.043035f, -0.072354f, -0.012600f, 0.037909f, 0.023695f, -0.049875f, -0.035161f, -0.077420f, -0.043607f, -0.030156f,
    -0.078986f, -0.003060f, -0.029267f, -0.060593f, 0.056959f, 0.026617f, -0.027908f, -0.021356f, -0.071662f, -0.016817f,
    0.000463f, 0.084500f, -0.018831f, 0.001922f, 0.071699f, -0.078358f, -0.030243f, 0.077445f, -0.036291f, 0.026151f,
    0.074920f, 0.036588f, -0.068836f, -0.051037f, -0.053272f, -0.058494f, -0.072008f, 0.043158f, -0.063966f, 0.000093f,
    0.016289f, 0.024214f, -0.025769f, -0.053388f, 0.011275f, 0.076112f, 0.076969f, -0.033197f, 0.034540f, 0.011161f,
    -0.031324f, -0.064558f, -0.019183f, -0.065989f, -0.063730f, -0.043604f, -0.018091f, 0.048912f, -0.029759f, 0.051871f,
    -0.001776f, -0.047766f, -0.080805f, 0.062695f, 0.048798f, -0.005183f, 0.058940f, -0.039970f, -0.021740f, -0.044330f,
    -0.057382f, 0.047249f, -0.080536f, 0.017796f, -0.029550f, -0.013506f, 0.009101f, -0.084948f, 0.013548f, -0.048089f,
    -0.040102f, 0.024584f, 0.045328f, -0.086641f, -0.022627f, 0.046010f, -0.082860f, -0.003924f, -0.042386f, 0.038240f,
    -0.040323f, -0.044593f, -0.030097f, -0.050033f, 0.084876f, -0.023194f, 0.001664f, 0.051156f, -0.073839f, -0.080244f,
    -0.053027f, -0.011815f, 0.021018f, -0.044129f, -0.008199f, 0.054242f, 0.015739f, -0.084728f, 0.055477f, -0.016143f,
    -0.074486f, 0.067730f, 0.029983f, -0.031958f, -0.007208f, -0.019460f, 0.025882f, 0.047104f, 0.026208f, -0.017713f,
    0.044765f, -0.026292f, -0.009597f, -0.078435f, 0.028392f, -0.009300f, 0.047222f, 0.042057f, -0.041846f, -0.046045f,
    0.058178f, -0.082980f, 0.081708f, 0.058699f, -0.071462f, 0.013419f, 0.001975f, 0.059394f, 0.026508f, -0.040026f,
    0.011158f, -0.087048f, 0.017342f, -0.021344f, 0.045860f, 0.045714f, 0.035022f, 0.021490f, -0.081927f, 0.030099f,
    -0.054107f, -0.034059f, -0.044159f, 0.082522f, -0.054686f, 0.052833f, -0.022912f, 0.011037f, 0.064313f, -0.045577f,
    -0.038210f, -0.049474f, 0.058146f, 0.047047f, -0.060114f, -0.034797f, 0.081263f, -0.056617f, 0.042903f, 0.012371f,
    0.068575f, -0.083453f, -0.007373f, 0.001760f, 0.021849f, -0.041689f, 0.050579f, 0.041459f, -0.010879f, 0.042566f,
    -0.062233f, -0.048019f, -0.064709f, 0.040140f, 0.075971f, -0.077776f, 0.037851f, 0.055260f, -0.028177f, 0.018883f,
    0.062118f, -0.070796f, 0.037733f, 0.045106f, 0.078861f, -0.033807f, 0.079550f, 0.005795f, -0.083241f, 0.070362f,
    0.008030f, 0.036688f, 0.062805f, 0.084268f, 0.069740f, -0.080690f, 0.086223f, -0.025309f, 0.050164f, -0.026991f,
    -0.037223f, 0.007399f, -0.076984f, -0.070435f, -0.004124f, 0.065169f, -0.002953f, 0.064275f, -0.084825f, 0.034765f,
    0.066712f, 0.070504f, -0.082259f, 0.016117f, -0.063857f, -0.012622f, -0.060095f, -0.041133f, -0.021322f, 0.066624f,
    -0.080522f, 0.012606f, 0.054629f, 0.048484f, 0.057396f, 0.080496f, 0.034639f, -0.013217f, -0.007430f, -0.079965f,
    -0.043562f, -0.053451f, -0.033088f, 0.044373f, -0.053791f, -0.073627f, 0.086667f, 0.081895f, -0.033842f, 0.077802f,
    0.043974f, -0.062770f, 0.011041f, -0.028282f, 0.036739f, -0.045289f, 0.076092f, 0.035020f, -0.048697f, 0.035348f,
    0.016281f, -0.072140f, -0.016729f, -0.080733f, -0.015866f, -0.035124f, 0.036531f, -0.080073f, -0.033108f, -0.062183f,
    0.083557f, -0.058967f, -0.042728f, 0.019703f, 0.025562f, -0.032527f, -0.022262f, 0.024086f, -0.005405f, -0.060511f,
    0.052112f, 0.006987f, -0.011418f, -0.048325f, 0.053601f, -0.067111f, 0.000049f, 0.014884f, -0.059734f, -0.044772f,
    0.085997f, 0.017050f, 0.014478f, 0.004436f, -0.041165f, -0.040676f, -0.006106f, -0.055301f, 0.057560f, 0.017438f,
    0.032563f, 0.006617f, 0.062150f, -0.013469f, 0.009382f, 0.040328f, -0.042220f, 0.025721f, -0.083753f, 0.013794f,
    0.033622f, 0.062643f, 0.054750f, -0.041483f, 0.070306f, 0.031463f, 0.020837f, -0.034528f, -0.051280f, 0.021349f,
    -0.041261f, -0.074059f, -0.028831f, -0.069403f, -0.011218f, -0.010238f, 0.082605f, 0.011090f, 0.060656f, 0.055377f,
    0.075453f, 0.008920f, 0.016576f, 0.006694f, 0.011401f, 0.028291f, -0.044535f, 0.084891f, -0.045942f, 0.068235f,
    -0.012063f, 0.004754f, 0.017565f, 0.036728f, -0.031772f, -0.030700f, 0.033050f, 0.032949f, -0.056562f, 0.060978f,
    -0.065357f, -0.028674f, -0.037936f, -0.036322f, -0.041888f, -0.061764f, 0.086090f, -0.016864f, 0.077773f, -0.057196f,
    0.008786f, 0.042855f, -0.005007f, -0.088281f, -0.050175f, -0.080898f, -0.012538f, -0.010363f, -0.061715f, 0.076314f,
    -0.055652f, 0.009430f, -0.076129f, 0.025248f, -0.037654f, -0.041253f, 0.029555f, 0.005503f, -0.006183f, -0.040352f,
    0.047803f, 0.050898f, -0.069735f, 0.041835f, 0.069534f, -0.007156f, -0.068046f, 0.006495f, -0.057996f, 0.084056f,
    0.069896f, 0.019449f, 0.050909f, 0.025855f, -0.055909f, 0.076781f, 0.081487f, 0.008112f, -0.009395f, -0.067807f,
    0.003478f, 0.012108f, -0.028534f, -0.050584f, -0.047415f, -0.002191f, 0.053381f, 0.067756f, -0.010687f, -0.021920f,
    0.069772f, 0.039509f, -0.008103f, -0.003383f, 0.072796f, -0.049589f, 0.030830f, 0.007848f, 0.063784f, 0.007148f,
    0.058270f, -0.043565f, 0.059710f, 0.041468f, -0.000354f, -0.074108f, -0.043974f, 0.070034f, 0.079290f, 0.078881f,
    -0.015914f, -0.079816f, 0.073190f, -0.000316f, 0.008094f, 0.009610f, 0.013865f, 0.085062f, 0.082852f, 0.068478f,
    -0.041330f, -0.076195f, 0.066609f, 0.016809f, 0.076289f, -0.069463f, -0.068528f, -0.047526f, -0.080804f, 0.005722f,
    0.001522f, 0.059045f, -0.082093f, 0.076905f, 0.052393f, 0.042751f, -0.038086f, 0.053284f, -0.084079f, 0.019929f,
    -0.063124f, -0.068793f, 0.020029f, -0.076548f, -0.045202f, -0.005194f, 0.081165f, 0.006889f, 0.074153f, -0.045613f,
    0.061660f, -0.035634f, -0.008483f, 0.016587f, -0.069294f, -0.015915f, 0.080547f, 0.025074f, 0.014021f, -0.045107f,
    -0.038367f, -0.059232f, 0.034501f, 0.014376f, -0.061813f, -0.084089f, 0.036074f, 0.027125f, 0.045528f, -0.008755f,
    -0.021099f, -0.063423f, -0.078380f, -0.073674f, 0.070811f, 0.042497f, 0.013896f, 0.019834f, -0.003996f, 0.074470f,
    -0.076281f, 0.029963f, -0.055621f, -0.045460f, -0.029413f, 0.030902f, 0.079769f, -0.083820f, -0.023989f, 0.084921f,
    -0.029040f, 0.067165f, 0.061063f, 0.015816f, -0.042047f, 0.075771f, -0.042786f, -0.057110f, -0.044071f, -0.051092f,
    -0.065436f, 0.007815f, 0.005272f, -0.025115f, 0.078310f, -0.022271f, -0.061744f, -0.075798f, 0.022196f, -0.039667f,
    0.031430f, -0.037365f, -0.081929f, -0.086523f, 0.048898f, 0.078306f, 0.062557f, 0.012730f, 0.070082f, -0.061717f,
